digraph Tree {
node [shape=box, style="filled", color="black", fontname="helvetica"] ;
edge [fontname="helvetica"] ;
0 [label="GPM <= 404.5\ngini = 0.718\nsamples = 10534\nvalue = [4107, 2676, 1536, 2215]\nclass = Cluster 0", fillcolor="#fae8db"] ;
1 [label="Vision Score <= 38.5\ngini = 0.537\nsamples = 5898\nvalue = [3717, 319, 462, 1400]\nclass = Cluster 0", fillcolor="#f2be99"] ;
0 -> 1 [labeldistance=2.5, labelangle=45, headlabel="True"] ;
2 [label="Total damage to Champion <= 21706.5\ngini = 0.273\nsamples = 4036\nvalue = [3420, 289, 119, 208]\nclass = Cluster 0", fillcolor="#e9965a"] ;
1 -> 2 ;
3 [label="GPM <= 381.5\ngini = 0.209\nsamples = 3756\nvalue = [3327, 224, 15, 190]\nclass = Cluster 0", fillcolor="#e89051"] ;
2 -> 3 ;
4 [label="Control Wards Purchased <= 11.5\ngini = 0.104\nsamples = 2930\nvalue = [2771, 46, 4, 109]\nclass = Cluster 0", fillcolor="#e68844"] ;
3 -> 4 ;
5 [label="XPD@15 <= 1062.5\ngini = 0.089\nsamples = 2875\nvalue = [2742, 46, 4, 83]\nclass = Cluster 0", fillcolor="#e68742"] ;
4 -> 5 ;
6 [label="Vision Score <= 33.5\ngini = 0.071\nsamples = 2809\nvalue = [2706, 23, 4, 76]\nclass = Cluster 0", fillcolor="#e68640"] ;
5 -> 6 ;
7 [label="KDA <= 18.0\ngini = 0.028\nsamples = 2309\nvalue = [2276, 16, 4, 13]\nclass = Cluster 0", fillcolor="#e5833c"] ;
6 -> 7 ;
8 [label="Kills <= 7.0\ngini = 0.025\nsamples = 2305\nvalue = [2276, 14, 4, 11]\nclass = Cluster 0", fillcolor="#e5833c"] ;
7 -> 8 ;
9 [label="WCPM <= 0.56\ngini = 0.023\nsamples = 2302\nvalue = [2275, 14, 2, 11]\nclass = Cluster 0", fillcolor="#e5823b"] ;
8 -> 9 ;
10 [label="CSD@15 <= 40.0\ngini = 0.022\nsamples = 2301\nvalue = [2275, 14, 2, 10]\nclass = Cluster 0", fillcolor="#e5823b"] ;
9 -> 10 ;
11 [label="Physical Damage <= 16905.0\ngini = 0.022\nsamples = 2300\nvalue = [2275, 13, 2, 10]\nclass = Cluster 0", fillcolor="#e5823b"] ;
10 -> 11 ;
12 [label="KDA <= 4.4\ngini = 0.02\nsamples = 2296\nvalue = [2273, 12, 2, 9]\nclass = Cluster 0", fillcolor="#e5823b"] ;
11 -> 12 ;
13 [label="VSPM <= 1.175\ngini = 0.01\nsamples = 2133\nvalue = [2122, 2, 0, 9]\nclass = Cluster 0", fillcolor="#e5823a"] ;
12 -> 13 ;
14 [label="CS <= 365.5\ngini = 0.006\nsamples = 2089\nvalue = [2083, 2, 0, 4]\nclass = Cluster 0", fillcolor="#e5813a"] ;
13 -> 14 ;
15 [label="DPM <= 735.5\ngini = 0.005\nsamples = 2084\nvalue = [2079, 1, 0, 4]\nclass = Cluster 0", fillcolor="#e58139"] ;
14 -> 15 ;
16 [label="WPM <= 0.525\ngini = 0.004\nsamples = 2072\nvalue = [2068, 0, 0, 4]\nclass = Cluster 0", fillcolor="#e58139"] ;
15 -> 16 ;
17 [label="gini = 0.0\nsamples = 1891\nvalue = [1891, 0, 0, 0]\nclass = Cluster 0", fillcolor="#e58139"] ;
16 -> 17 ;
18 [label="GD@15 <= 188.5\ngini = 0.043\nsamples = 181\nvalue = [177, 0, 0, 4]\nclass = Cluster 0", fillcolor="#e6843d"] ;
16 -> 18 ;
19 [label="Magic Damage <= 18258.0\ngini = 0.012\nsamples = 165\nvalue = [164, 0, 0, 1]\nclass = Cluster 0", fillcolor="#e5823a"] ;
18 -> 19 ;
20 [label="gini = 0.0\nsamples = 162\nvalue = [162, 0, 0, 0]\nclass = Cluster 0", fillcolor="#e58139"] ;
19 -> 20 ;
21 [label="VS% <= 0.142\ngini = 0.444\nsamples = 3\nvalue = [2, 0, 0, 1]\nclass = Cluster 0", fillcolor="#f2c09c"] ;
19 -> 21 ;
22 [label="gini = 0.0\nsamples = 2\nvalue = [2, 0, 0, 0]\nclass = Cluster 0", fillcolor="#e58139"] ;
21 -> 22 ;
23 [label="gini = 0.0\nsamples = 1\nvalue = [0, 0, 0, 1]\nclass = Cluster 3", fillcolor="#d739e5"] ;
21 -> 23 ;
24 [label="DPM <= 447.5\ngini = 0.305\nsamples = 16\nvalue = [13, 0, 0, 3]\nclass = Cluster 0", fillcolor="#eb9e67"] ;
18 -> 24 ;
25 [label="gini = 0.0\nsamples = 12\nvalue = [12, 0, 0, 0]\nclass = Cluster 0", fillcolor="#e58139"] ;
24 -> 25 ;
26 [label="CS <= 270.0\ngini = 0.375\nsamples = 4\nvalue = [1, 0, 0, 3]\nclass = Cluster 3", fillcolor="#e47bee"] ;
24 -> 26 ;
27 [label="gini = 0.0\nsamples = 1\nvalue = [1, 0, 0, 0]\nclass = Cluster 0", fillcolor="#e58139"] ;
26 -> 27 ;
28 [label="gini = 0.0\nsamples = 3\nvalue = [0, 0, 0, 3]\nclass = Cluster 3", fillcolor="#d739e5"] ;
26 -> 28 ;
29 [label="KDA <= 2.65\ngini = 0.153\nsamples = 12\nvalue = [11, 1, 0, 0]\nclass = Cluster 0", fillcolor="#e78c4b"] ;
15 -> 29 ;
30 [label="gini = 0.0\nsamples = 11\nvalue = [11, 0, 0, 0]\nclass = Cluster 0", fillcolor="#e58139"] ;
29 -> 30 ;
31 [label="gini = 0.0\nsamples = 1\nvalue = [0, 1, 0, 0]\nclass = Cluster 1", fillcolor="#47e539"] ;
29 -> 31 ;
32 [label="CS in Team's Jungle <= 29.5\ngini = 0.32\nsamples = 5\nvalue = [4, 1, 0, 0]\nclass = Cluster 0", fillcolor="#eca06a"] ;
14 -> 32 ;
33 [label="gini = 0.0\nsamples = 4\nvalue = [4, 0, 0, 0]\nclass = Cluster 0", fillcolor="#e58139"] ;
32 -> 33 ;
34 [label="gini = 0.0\nsamples = 1\nvalue = [0, 1, 0, 0]\nclass = Cluster 1", fillcolor="#47e539"] ;
32 -> 34 ;
35 [label="XPD@15 <= 395.5\ngini = 0.201\nsamples = 44\nvalue = [39, 0, 0, 5]\nclass = Cluster 0", fillcolor="#e89152"] ;
13 -> 35 ;
36 [label="CSD@15 <= 20.5\ngini = 0.093\nsamples = 41\nvalue = [39, 0, 0, 2]\nclass = Cluster 0", fillcolor="#e68743"] ;
35 -> 36 ;
37 [label="XPD@15 <= 123.0\ngini = 0.049\nsamples = 40\nvalue = [39, 0, 0, 1]\nclass = Cluster 0", fillcolor="#e6843e"] ;
36 -> 37 ;
38 [label="gini = 0.0\nsamples = 37\nvalue = [37, 0, 0, 0]\nclass = Cluster 0", fillcolor="#e58139"] ;
37 -> 38 ;
39 [label="WPM <= 0.555\ngini = 0.444\nsamples = 3\nvalue = [2, 0, 0, 1]\nclass = Cluster 0", fillcolor="#f2c09c"] ;
37 -> 39 ;
40 [label="gini = 0.0\nsamples = 2\nvalue = [2, 0, 0, 0]\nclass = Cluster 0", fillcolor="#e58139"] ;
39 -> 40 ;
41 [label="gini = 0.0\nsamples = 1\nvalue = [0, 0, 0, 1]\nclass = Cluster 3", fillcolor="#d739e5"] ;
39 -> 41 ;
42 [label="gini = 0.0\nsamples = 1\nvalue = [0, 0, 0, 1]\nclass = Cluster 3", fillcolor="#d739e5"] ;
36 -> 42 ;
43 [label="gini = 0.0\nsamples = 3\nvalue = [0, 0, 0, 3]\nclass = Cluster 3", fillcolor="#d739e5"] ;
35 -> 43 ;
44 [label="DMG% <= 0.306\ngini = 0.138\nsamples = 163\nvalue = [151, 10, 2, 0]\nclass = Cluster 0", fillcolor="#e78b49"] ;
12 -> 44 ;
45 [label="Damage dealt to turrets <= 6982.5\ngini = 0.087\nsamples = 156\nvalue = [149, 5, 2, 0]\nclass = Cluster 0", fillcolor="#e68742"] ;
44 -> 45 ;
46 [label="Deaths <= 3.5\ngini = 0.063\nsamples = 154\nvalue = [149, 5, 0, 0]\nclass = Cluster 0", fillcolor="#e68540"] ;
45 -> 46 ;
47 [label="CS in Team's Jungle <= 31.0\ngini = 0.039\nsamples = 152\nvalue = [149, 3, 0, 0]\nclass = Cluster 0", fillcolor="#e6843d"] ;
46 -> 47 ;
48 [label="KP% <= 0.934\ngini = 0.013\nsamples = 148\nvalue = [147, 1, 0, 0]\nclass = Cluster 0", fillcolor="#e5823a"] ;
47 -> 48 ;
49 [label="gini = 0.0\nsamples = 146\nvalue = [146, 0, 0, 0]\nclass = Cluster 0", fillcolor="#e58139"] ;
48 -> 49 ;
50 [label="CS <= 261.5\ngini = 0.5\nsamples = 2\nvalue = [1, 1, 0, 0]\nclass = Cluster 0", fillcolor="#ffffff"] ;
48 -> 50 ;
51 [label="gini = 0.0\nsamples = 1\nvalue = [1, 0, 0, 0]\nclass = Cluster 0", fillcolor="#e58139"] ;
50 -> 51 ;
52 [label="gini = 0.0\nsamples = 1\nvalue = [0, 1, 0, 0]\nclass = Cluster 1", fillcolor="#47e539"] ;
50 -> 52 ;
53 [label="CSD@15 <= 7.0\ngini = 0.5\nsamples = 4\nvalue = [2, 2, 0, 0]\nclass = Cluster 0", fillcolor="#ffffff"] ;
47 -> 53 ;
54 [label="gini = 0.0\nsamples = 2\nvalue = [0, 2, 0, 0]\nclass = Cluster 1", fillcolor="#47e539"] ;
53 -> 54 ;
55 [label="gini = 0.0\nsamples = 2\nvalue = [2, 0, 0, 0]\nclass = Cluster 0", fillcolor="#e58139"] ;
53 -> 55 ;
56 [label="gini = 0.0\nsamples = 2\nvalue = [0, 2, 0, 0]\nclass = Cluster 1", fillcolor="#47e539"] ;
46 -> 56 ;
57 [label="gini = 0.0\nsamples = 2\nvalue = [0, 0, 2, 0]\nclass = Cluster 2", fillcolor="#399de5"] ;
45 -> 57 ;
58 [label="CSD@15 <= 6.5\ngini = 0.408\nsamples = 7\nvalue = [2, 5, 0, 0]\nclass = Cluster 1", fillcolor="#91ef88"] ;
44 -> 58 ;
59 [label="gini = 0.0\nsamples = 2\nvalue = [2, 0, 0, 0]\nclass = Cluster 0", fillcolor="#e58139"] ;
58 -> 59 ;
60 [label="gini = 0.0\nsamples = 5\nvalue = [0, 5, 0, 0]\nclass = Cluster 1", fillcolor="#47e539"] ;
58 -> 60 ;
61 [label="WCPM <= 0.225\ngini = 0.625\nsamples = 4\nvalue = [2, 1, 0, 1]\nclass = Cluster 0", fillcolor="#f6d5bd"] ;
11 -> 61 ;
62 [label="gini = 0.0\nsamples = 2\nvalue = [2, 0, 0, 0]\nclass = Cluster 0", fillcolor="#e58139"] ;
61 -> 62 ;
63 [label="CS in Team's Jungle <= 14.5\ngini = 0.5\nsamples = 2\nvalue = [0, 1, 0, 1]\nclass = Cluster 1", fillcolor="#ffffff"] ;
61 -> 63 ;
64 [label="gini = 0.0\nsamples = 1\nvalue = [0, 1, 0, 0]\nclass = Cluster 1", fillcolor="#47e539"] ;
63 -> 64 ;
65 [label="gini = 0.0\nsamples = 1\nvalue = [0, 0, 0, 1]\nclass = Cluster 3", fillcolor="#d739e5"] ;
63 -> 65 ;
66 [label="gini = 0.0\nsamples = 1\nvalue = [0, 1, 0, 0]\nclass = Cluster 1", fillcolor="#47e539"] ;
10 -> 66 ;
67 [label="gini = 0.0\nsamples = 1\nvalue = [0, 0, 0, 1]\nclass = Cluster 3", fillcolor="#d739e5"] ;
9 -> 67 ;
68 [label="Total damage taken <= 22660.0\ngini = 0.444\nsamples = 3\nvalue = [1, 0, 2, 0]\nclass = Cluster 2", fillcolor="#9ccef2"] ;
8 -> 68 ;
69 [label="gini = 0.0\nsamples = 1\nvalue = [1, 0, 0, 0]\nclass = Cluster 0", fillcolor="#e58139"] ;
68 -> 69 ;
70 [label="gini = 0.0\nsamples = 2\nvalue = [0, 0, 2, 0]\nclass = Cluster 2", fillcolor="#399de5"] ;
68 -> 70 ;
71 [label="Time ccing others <= 27.5\ngini = 0.5\nsamples = 4\nvalue = [0, 2, 0, 2]\nclass = Cluster 1", fillcolor="#ffffff"] ;
7 -> 71 ;
72 [label="gini = 0.0\nsamples = 2\nvalue = [0, 0, 0, 2]\nclass = Cluster 3", fillcolor="#d739e5"] ;
71 -> 72 ;
73 [label="gini = 0.0\nsamples = 2\nvalue = [0, 2, 0, 0]\nclass = Cluster 1", fillcolor="#47e539"] ;
71 -> 73 ;
74 [label="GOLD% <= 0.242\ngini = 0.244\nsamples = 500\nvalue = [430, 7, 0, 63]\nclass = Cluster 0", fillcolor="#e99559"] ;
6 -> 74 ;
75 [label="CSD@15 <= 11.5\ngini = 0.21\nsamples = 485\nvalue = [428, 5, 0, 52]\nclass = Cluster 0", fillcolor="#e89253"] ;
74 -> 75 ;
76 [label="Wards destroyed <= 12.5\ngini = 0.145\nsamples = 423\nvalue = [390, 2, 0, 31]\nclass = Cluster 0", fillcolor="#e78c4a"] ;
75 -> 76 ;
77 [label="Damage dealt to turrets <= 5680.5\ngini = 0.105\nsamples = 396\nvalue = [374, 1, 0, 21]\nclass = Cluster 0", fillcolor="#e78845"] ;
76 -> 77 ;
78 [label="Control Wards Purchased <= 7.5\ngini = 0.097\nsamples = 394\nvalue = [374, 1, 0, 19]\nclass = Cluster 0", fillcolor="#e68844"] ;
77 -> 78 ;
79 [label="GD@15 <= 998.5\ngini = 0.029\nsamples = 273\nvalue = [269, 1, 0, 3]\nclass = Cluster 0", fillcolor="#e5833c"] ;
78 -> 79 ;
80 [label="Solo kills <= 15.0\ngini = 0.022\nsamples = 272\nvalue = [269, 0, 0, 3]\nclass = Cluster 0", fillcolor="#e5823b"] ;
79 -> 80 ;
81 [label="CS in Team's Jungle <= 30.5\ngini = 0.015\nsamples = 271\nvalue = [269, 0, 0, 2]\nclass = Cluster 0", fillcolor="#e5823a"] ;
80 -> 81 ;
82 [label="Deaths <= 0.5\ngini = 0.007\nsamples = 268\nvalue = [267, 0, 0, 1]\nclass = Cluster 0", fillcolor="#e5813a"] ;
81 -> 82 ;
83 [label="Time ccing others <= 27.0\ngini = 0.133\nsamples = 14\nvalue = [13, 0, 0, 1]\nclass = Cluster 0", fillcolor="#e78b48"] ;
82 -> 83 ;
84 [label="gini = 0.0\nsamples = 13\nvalue = [13, 0, 0, 0]\nclass = Cluster 0", fillcolor="#e58139"] ;
83 -> 84 ;
85 [label="gini = 0.0\nsamples = 1\nvalue = [0, 0, 0, 1]\nclass = Cluster 3", fillcolor="#d739e5"] ;
83 -> 85 ;
86 [label="gini = 0.0\nsamples = 254\nvalue = [254, 0, 0, 0]\nclass = Cluster 0", fillcolor="#e58139"] ;
82 -> 86 ;
87 [label="Solo kills <= 5.0\ngini = 0.444\nsamples = 3\nvalue = [2, 0, 0, 1]\nclass = Cluster 0", fillcolor="#f2c09c"] ;
81 -> 87 ;
88 [label="gini = 0.0\nsamples = 2\nvalue = [2, 0, 0, 0]\nclass = Cluster 0", fillcolor="#e58139"] ;
87 -> 88 ;
89 [label="gini = 0.0\nsamples = 1\nvalue = [0, 0, 0, 1]\nclass = Cluster 3", fillcolor="#d739e5"] ;
87 -> 89 ;
90 [label="gini = 0.0\nsamples = 1\nvalue = [0, 0, 0, 1]\nclass = Cluster 3", fillcolor="#d739e5"] ;
80 -> 90 ;
91 [label="gini = 0.0\nsamples = 1\nvalue = [0, 1, 0, 0]\nclass = Cluster 1", fillcolor="#47e539"] ;
79 -> 91 ;
92 [label="XPD@15 <= -250.5\ngini = 0.229\nsamples = 121\nvalue = [105, 0, 0, 16]\nclass = Cluster 0", fillcolor="#e99457"] ;
78 -> 92 ;
93 [label="gini = 0.0\nsamples = 77\nvalue = [77, 0, 0, 0]\nclass = Cluster 0", fillcolor="#e58139"] ;
92 -> 93 ;
94 [label="Total damage to Champion <= 16112.5\ngini = 0.463\nsamples = 44\nvalue = [28, 0, 0, 16]\nclass = Cluster 0", fillcolor="#f4c9aa"] ;
92 -> 94 ;
95 [label="True Damage <= 1681.5\ngini = 0.327\nsamples = 34\nvalue = [27, 0, 0, 7]\nclass = Cluster 0", fillcolor="#eca26c"] ;
94 -> 95 ;
96 [label="CS in Team's Jungle <= 22.0\ngini = 0.185\nsamples = 29\nvalue = [26, 0, 0, 3]\nclass = Cluster 0", fillcolor="#e89050"] ;
95 -> 96 ;
97 [label="LVLD@15 <= -0.5\ngini = 0.071\nsamples = 27\nvalue = [26, 0, 0, 1]\nclass = Cluster 0", fillcolor="#e68641"] ;
96 -> 97 ;
98 [label="CS <= 236.5\ngini = 0.5\nsamples = 2\nvalue = [1, 0, 0, 1]\nclass = Cluster 0", fillcolor="#ffffff"] ;
97 -> 98 ;
99 [label="gini = 0.0\nsamples = 1\nvalue = [0, 0, 0, 1]\nclass = Cluster 3", fillcolor="#d739e5"] ;
98 -> 99 ;
100 [label="gini = 0.0\nsamples = 1\nvalue = [1, 0, 0, 0]\nclass = Cluster 0", fillcolor="#e58139"] ;
98 -> 100 ;
101 [label="gini = 0.0\nsamples = 25\nvalue = [25, 0, 0, 0]\nclass = Cluster 0", fillcolor="#e58139"] ;
97 -> 101 ;
102 [label="gini = 0.0\nsamples = 2\nvalue = [0, 0, 0, 2]\nclass = Cluster 3", fillcolor="#d739e5"] ;
96 -> 102 ;
103 [label="VSPM <= 0.965\ngini = 0.32\nsamples = 5\nvalue = [1, 0, 0, 4]\nclass = Cluster 3", fillcolor="#e16aec"] ;
95 -> 103 ;
104 [label="gini = 0.0\nsamples = 1\nvalue = [1, 0, 0, 0]\nclass = Cluster 0", fillcolor="#e58139"] ;
103 -> 104 ;
105 [label="gini = 0.0\nsamples = 4\nvalue = [0, 0, 0, 4]\nclass = Cluster 3", fillcolor="#d739e5"] ;
103 -> 105 ;
106 [label="CS in Team's Jungle <= 0.5\ngini = 0.18\nsamples = 10\nvalue = [1, 0, 0, 9]\nclass = Cluster 3", fillcolor="#db4fe8"] ;
94 -> 106 ;
107 [label="gini = 0.0\nsamples = 1\nvalue = [1, 0, 0, 0]\nclass = Cluster 0", fillcolor="#e58139"] ;
106 -> 107 ;
108 [label="gini = 0.0\nsamples = 9\nvalue = [0, 0, 0, 9]\nclass = Cluster 3", fillcolor="#d739e5"] ;
106 -> 108 ;
109 [label="gini = 0.0\nsamples = 2\nvalue = [0, 0, 0, 2]\nclass = Cluster 3", fillcolor="#d739e5"] ;
77 -> 109 ;
110 [label="Wards placed <= 12.5\ngini = 0.51\nsamples = 27\nvalue = [16, 1, 0, 10]\nclass = Cluster 0", fillcolor="#f6d3b9"] ;
76 -> 110 ;
111 [label="Time ccing others <= 30.0\ngini = 0.133\nsamples = 14\nvalue = [13, 0, 0, 1]\nclass = Cluster 0", fillcolor="#e78b48"] ;
110 -> 111 ;
112 [label="gini = 0.0\nsamples = 13\nvalue = [13, 0, 0, 0]\nclass = Cluster 0", fillcolor="#e58139"] ;
111 -> 112 ;
113 [label="gini = 0.0\nsamples = 1\nvalue = [0, 0, 0, 1]\nclass = Cluster 3", fillcolor="#d739e5"] ;
111 -> 113 ;
114 [label="Time ccing others <= 18.0\ngini = 0.462\nsamples = 13\nvalue = [3, 1, 0, 9]\nclass = Cluster 3", fillcolor="#e788ef"] ;
110 -> 114 ;
115 [label="gini = 0.0\nsamples = 9\nvalue = [0, 0, 0, 9]\nclass = Cluster 3", fillcolor="#d739e5"] ;
114 -> 115 ;
116 [label="Deaths <= 1.5\ngini = 0.375\nsamples = 4\nvalue = [3, 1, 0, 0]\nclass = Cluster 0", fillcolor="#eeab7b"] ;
114 -> 116 ;
117 [label="gini = 0.0\nsamples = 1\nvalue = [0, 1, 0, 0]\nclass = Cluster 1", fillcolor="#47e539"] ;
116 -> 117 ;
118 [label="gini = 0.0\nsamples = 3\nvalue = [3, 0, 0, 0]\nclass = Cluster 0", fillcolor="#e58139"] ;
116 -> 118 ;
119 [label="VWPM <= 0.195\ngini = 0.507\nsamples = 62\nvalue = [38, 3, 0, 21]\nclass = Cluster 0", fillcolor="#f4cbad"] ;
75 -> 119 ;
120 [label="DMG% <= 0.3\ngini = 0.268\nsamples = 33\nvalue = [28, 2, 0, 3]\nclass = Cluster 0", fillcolor="#e9965a"] ;
119 -> 120 ;
121 [label="GD@15 <= 1084.0\ngini = 0.131\nsamples = 29\nvalue = [27, 1, 0, 1]\nclass = Cluster 0", fillcolor="#e78a47"] ;
120 -> 121 ;
122 [label="Physical Damage <= 49.5\ngini = 0.069\nsamples = 28\nvalue = [27, 1, 0, 0]\nclass = Cluster 0", fillcolor="#e68640"] ;
121 -> 122 ;
123 [label="gini = 0.0\nsamples = 1\nvalue = [0, 1, 0, 0]\nclass = Cluster 1", fillcolor="#47e539"] ;
122 -> 123 ;
124 [label="gini = 0.0\nsamples = 27\nvalue = [27, 0, 0, 0]\nclass = Cluster 0", fillcolor="#e58139"] ;
122 -> 124 ;
125 [label="gini = 0.0\nsamples = 1\nvalue = [0, 0, 0, 1]\nclass = Cluster 3", fillcolor="#d739e5"] ;
121 -> 125 ;
126 [label="Time ccing others <= 16.0\ngini = 0.625\nsamples = 4\nvalue = [1, 1, 0, 2]\nclass = Cluster 3", fillcolor="#f2bdf6"] ;
120 -> 126 ;
127 [label="gini = 0.0\nsamples = 2\nvalue = [0, 0, 0, 2]\nclass = Cluster 3", fillcolor="#d739e5"] ;
126 -> 127 ;
128 [label="VS% <= 0.16\ngini = 0.5\nsamples = 2\nvalue = [1, 1, 0, 0]\nclass = Cluster 0", fillcolor="#ffffff"] ;
126 -> 128 ;
129 [label="gini = 0.0\nsamples = 1\nvalue = [0, 1, 0, 0]\nclass = Cluster 1", fillcolor="#47e539"] ;
128 -> 129 ;
130 [label="gini = 0.0\nsamples = 1\nvalue = [1, 0, 0, 0]\nclass = Cluster 0", fillcolor="#e58139"] ;
128 -> 130 ;
131 [label="Magic Damage <= 3850.5\ngini = 0.495\nsamples = 29\nvalue = [10, 1, 0, 18]\nclass = Cluster 3", fillcolor="#eeacf4"] ;
119 -> 131 ;
132 [label="gini = 0.0\nsamples = 5\nvalue = [5, 0, 0, 0]\nclass = Cluster 0", fillcolor="#e58139"] ;
131 -> 132 ;
133 [label="Damage dealt to turrets <= 729.5\ngini = 0.392\nsamples = 24\nvalue = [5, 1, 0, 18]\nclass = Cluster 3", fillcolor="#e478ed"] ;
131 -> 133 ;
134 [label="Total damage to Champion <= 11555.0\ngini = 0.408\nsamples = 7\nvalue = [5, 0, 0, 2]\nclass = Cluster 0", fillcolor="#efb388"] ;
133 -> 134 ;
135 [label="gini = 0.0\nsamples = 2\nvalue = [0, 0, 0, 2]\nclass = Cluster 3", fillcolor="#d739e5"] ;
134 -> 135 ;
136 [label="gini = 0.0\nsamples = 5\nvalue = [5, 0, 0, 0]\nclass = Cluster 0", fillcolor="#e58139"] ;
134 -> 136 ;
137 [label="Magic Damage <= 14861.5\ngini = 0.111\nsamples = 17\nvalue = [0, 1, 0, 16]\nclass = Cluster 3", fillcolor="#da45e7"] ;
133 -> 137 ;
138 [label="gini = 0.0\nsamples = 16\nvalue = [0, 0, 0, 16]\nclass = Cluster 3", fillcolor="#d739e5"] ;
137 -> 138 ;
139 [label="gini = 0.0\nsamples = 1\nvalue = [0, 1, 0, 0]\nclass = Cluster 1", fillcolor="#47e539"] ;
137 -> 139 ;
140 [label="Magic Damage <= 9905.5\ngini = 0.427\nsamples = 15\nvalue = [2, 2, 0, 11]\nclass = Cluster 3", fillcolor="#e376ed"] ;
74 -> 140 ;
141 [label="gini = 0.0\nsamples = 11\nvalue = [0, 0, 0, 11]\nclass = Cluster 3", fillcolor="#d739e5"] ;
140 -> 141 ;
142 [label="Physical Damage <= 791.5\ngini = 0.5\nsamples = 4\nvalue = [2, 2, 0, 0]\nclass = Cluster 0", fillcolor="#ffffff"] ;
140 -> 142 ;
143 [label="gini = 0.0\nsamples = 2\nvalue = [0, 2, 0, 0]\nclass = Cluster 1", fillcolor="#47e539"] ;
142 -> 143 ;
144 [label="gini = 0.0\nsamples = 2\nvalue = [2, 0, 0, 0]\nclass = Cluster 0", fillcolor="#e58139"] ;
142 -> 144 ;
145 [label="GOLD% <= 0.232\ngini = 0.57\nsamples = 66\nvalue = [36, 23, 0, 7]\nclass = Cluster 0", fillcolor="#f7d9c3"] ;
5 -> 145 ;
146 [label="Vision Score <= 30.5\ngini = 0.46\nsamples = 44\nvalue = [31, 7, 0, 6]\nclass = Cluster 0", fillcolor="#eead7f"] ;
145 -> 146 ;
147 [label="CS <= 317.0\ngini = 0.08\nsamples = 24\nvalue = [23, 1, 0, 0]\nclass = Cluster 0", fillcolor="#e68642"] ;
146 -> 147 ;
148 [label="gini = 0.0\nsamples = 23\nvalue = [23, 0, 0, 0]\nclass = Cluster 0", fillcolor="#e58139"] ;
147 -> 148 ;
149 [label="gini = 0.0\nsamples = 1\nvalue = [0, 1, 0, 0]\nclass = Cluster 1", fillcolor="#47e539"] ;
147 -> 149 ;
150 [label="CS in Team's Jungle <= 6.0\ngini = 0.66\nsamples = 20\nvalue = [8, 6, 0, 6]\nclass = Cluster 0", fillcolor="#fbede3"] ;
146 -> 150 ;
151 [label="gini = 0.0\nsamples = 6\nvalue = [0, 0, 0, 6]\nclass = Cluster 3", fillcolor="#d739e5"] ;
150 -> 151 ;
152 [label="XPD@15 <= 1335.5\ngini = 0.49\nsamples = 14\nvalue = [8, 6, 0, 0]\nclass = Cluster 0", fillcolor="#f8e0ce"] ;
150 -> 152 ;
153 [label="gini = 0.0\nsamples = 8\nvalue = [8, 0, 0, 0]\nclass = Cluster 0", fillcolor="#e58139"] ;
152 -> 153 ;
154 [label="gini = 0.0\nsamples = 6\nvalue = [0, 6, 0, 0]\nclass = Cluster 1", fillcolor="#47e539"] ;
152 -> 154 ;
155 [label="CS in Team's Jungle <= 7.5\ngini = 0.417\nsamples = 22\nvalue = [5, 16, 0, 1]\nclass = Cluster 1", fillcolor="#88ee7f"] ;
145 -> 155 ;
156 [label="Golds <= 10761.0\ngini = 0.568\nsamples = 9\nvalue = [5, 3, 0, 1]\nclass = Cluster 0", fillcolor="#f6d5bd"] ;
155 -> 156 ;
157 [label="VSPM <= 1.12\ngini = 0.278\nsamples = 6\nvalue = [5, 0, 0, 1]\nclass = Cluster 0", fillcolor="#ea9a61"] ;
156 -> 157 ;
158 [label="gini = 0.0\nsamples = 5\nvalue = [5, 0, 0, 0]\nclass = Cluster 0", fillcolor="#e58139"] ;
157 -> 158 ;
159 [label="gini = 0.0\nsamples = 1\nvalue = [0, 0, 0, 1]\nclass = Cluster 3", fillcolor="#d739e5"] ;
157 -> 159 ;
160 [label="gini = 0.0\nsamples = 3\nvalue = [0, 3, 0, 0]\nclass = Cluster 1", fillcolor="#47e539"] ;
156 -> 160 ;
161 [label="gini = 0.0\nsamples = 13\nvalue = [0, 13, 0, 0]\nclass = Cluster 1", fillcolor="#47e539"] ;
155 -> 161 ;
162 [label="XPD@15 <= 91.0\ngini = 0.499\nsamples = 55\nvalue = [29, 0, 0, 26]\nclass = Cluster 0", fillcolor="#fcf2eb"] ;
4 -> 162 ;
163 [label="WCPM <= 0.295\ngini = 0.399\nsamples = 40\nvalue = [29, 0, 0, 11]\nclass = Cluster 0", fillcolor="#efb184"] ;
162 -> 163 ;
164 [label="True Damage <= 1471.5\ngini = 0.284\nsamples = 35\nvalue = [29, 0, 0, 6]\nclass = Cluster 0", fillcolor="#ea9b62"] ;
163 -> 164 ;
165 [label="GD@15 <= 38.0\ngini = 0.17\nsamples = 32\nvalue = [29, 0, 0, 3]\nclass = Cluster 0", fillcolor="#e88e4d"] ;
164 -> 165 ;
166 [label="VSPM <= 1.165\ngini = 0.064\nsamples = 30\nvalue = [29, 0, 0, 1]\nclass = Cluster 0", fillcolor="#e68540"] ;
165 -> 166 ;
167 [label="gini = 0.0\nsamples = 29\nvalue = [29, 0, 0, 0]\nclass = Cluster 0", fillcolor="#e58139"] ;
166 -> 167 ;
168 [label="gini = 0.0\nsamples = 1\nvalue = [0, 0, 0, 1]\nclass = Cluster 3", fillcolor="#d739e5"] ;
166 -> 168 ;
169 [label="gini = 0.0\nsamples = 2\nvalue = [0, 0, 0, 2]\nclass = Cluster 3", fillcolor="#d739e5"] ;
165 -> 169 ;
170 [label="gini = 0.0\nsamples = 3\nvalue = [0, 0, 0, 3]\nclass = Cluster 3", fillcolor="#d739e5"] ;
164 -> 170 ;
171 [label="gini = 0.0\nsamples = 5\nvalue = [0, 0, 0, 5]\nclass = Cluster 3", fillcolor="#d739e5"] ;
163 -> 171 ;
172 [label="gini = 0.0\nsamples = 15\nvalue = [0, 0, 0, 15]\nclass = Cluster 3", fillcolor="#d739e5"] ;
162 -> 172 ;
173 [label="XPD@15 <= 311.5\ngini = 0.491\nsamples = 826\nvalue = [556, 178, 11, 81]\nclass = Cluster 0", fillcolor="#f0b68c"] ;
3 -> 173 ;
174 [label="KDA <= 7.25\ngini = 0.357\nsamples = 620\nvalue = [489, 69, 6, 56]\nclass = Cluster 0", fillcolor="#eb9f68"] ;
173 -> 174 ;
175 [label="Vision Score <= 32.5\ngini = 0.278\nsamples = 516\nvalue = [435, 28, 5, 48]\nclass = Cluster 0", fillcolor="#ea975b"] ;
174 -> 175 ;
176 [label="CSD@15 <= 22.0\ngini = 0.129\nsamples = 370\nvalue = [345, 14, 3, 8]\nclass = Cluster 0", fillcolor="#e78a47"] ;
175 -> 176 ;
177 [label="Total heal <= 12656.5\ngini = 0.11\nsamples = 366\nvalue = [345, 10, 3, 8]\nclass = Cluster 0", fillcolor="#e78845"] ;
176 -> 177 ;
178 [label="WPM <= 0.645\ngini = 0.096\nsamples = 363\nvalue = [345, 10, 1, 7]\nclass = Cluster 0", fillcolor="#e68743"] ;
177 -> 178 ;
179 [label="DPM <= 660.0\ngini = 0.086\nsamples = 361\nvalue = [345, 10, 1, 5]\nclass = Cluster 0", fillcolor="#e68742"] ;
178 -> 179 ;
180 [label="CS in Team's Jungle <= 36.5\ngini = 0.062\nsamples = 344\nvalue = [333, 5, 1, 5]\nclass = Cluster 0", fillcolor="#e6853f"] ;
179 -> 180 ;
181 [label="Deaths <= 8.5\ngini = 0.041\nsamples = 332\nvalue = [325, 1, 1, 5]\nclass = Cluster 0", fillcolor="#e6843d"] ;
180 -> 181 ;
182 [label="Vision Score <= 31.5\ngini = 0.036\nsamples = 331\nvalue = [325, 1, 0, 5]\nclass = Cluster 0", fillcolor="#e5833d"] ;
181 -> 182 ;
183 [label="Control Wards Purchased <= 10.5\ngini = 0.013\nsamples = 303\nvalue = [301, 1, 0, 1]\nclass = Cluster 0", fillcolor="#e5823a"] ;
182 -> 183 ;
184 [label="WPM <= 0.135\ngini = 0.007\nsamples = 300\nvalue = [299, 1, 0, 0]\nclass = Cluster 0", fillcolor="#e5813a"] ;
183 -> 184 ;
185 [label="KP% <= 0.795\ngini = 0.124\nsamples = 15\nvalue = [14, 1, 0, 0]\nclass = Cluster 0", fillcolor="#e78a47"] ;
184 -> 185 ;
186 [label="gini = 0.0\nsamples = 14\nvalue = [14, 0, 0, 0]\nclass = Cluster 0", fillcolor="#e58139"] ;
185 -> 186 ;
187 [label="gini = 0.0\nsamples = 1\nvalue = [0, 1, 0, 0]\nclass = Cluster 1", fillcolor="#47e539"] ;
185 -> 187 ;
188 [label="gini = 0.0\nsamples = 285\nvalue = [285, 0, 0, 0]\nclass = Cluster 0", fillcolor="#e58139"] ;
184 -> 188 ;
189 [label="GOLD% <= 0.227\ngini = 0.444\nsamples = 3\nvalue = [2, 0, 0, 1]\nclass = Cluster 0", fillcolor="#f2c09c"] ;
183 -> 189 ;
190 [label="gini = 0.0\nsamples = 2\nvalue = [2, 0, 0, 0]\nclass = Cluster 0", fillcolor="#e58139"] ;
189 -> 190 ;
191 [label="gini = 0.0\nsamples = 1\nvalue = [0, 0, 0, 1]\nclass = Cluster 3", fillcolor="#d739e5"] ;
189 -> 191 ;
192 [label="GOLD% <= 0.247\ngini = 0.245\nsamples = 28\nvalue = [24, 0, 0, 4]\nclass = Cluster 0", fillcolor="#e9965a"] ;
182 -> 192 ;
193 [label="CS <= 349.0\ngini = 0.083\nsamples = 23\nvalue = [22, 0, 0, 1]\nclass = Cluster 0", fillcolor="#e68742"] ;
192 -> 193 ;
194 [label="gini = 0.0\nsamples = 22\nvalue = [22, 0, 0, 0]\nclass = Cluster 0", fillcolor="#e58139"] ;
193 -> 194 ;
195 [label="gini = 0.0\nsamples = 1\nvalue = [0, 0, 0, 1]\nclass = Cluster 3", fillcolor="#d739e5"] ;
193 -> 195 ;
196 [label="VWPM <= 0.185\ngini = 0.48\nsamples = 5\nvalue = [2, 0, 0, 3]\nclass = Cluster 3", fillcolor="#f2bdf6"] ;
192 -> 196 ;
197 [label="gini = 0.0\nsamples = 2\nvalue = [2, 0, 0, 0]\nclass = Cluster 0", fillcolor="#e58139"] ;
196 -> 197 ;
198 [label="gini = 0.0\nsamples = 3\nvalue = [0, 0, 0, 3]\nclass = Cluster 3", fillcolor="#d739e5"] ;
196 -> 198 ;
199 [label="gini = 0.0\nsamples = 1\nvalue = [0, 0, 1, 0]\nclass = Cluster 2", fillcolor="#399de5"] ;
181 -> 199 ;
200 [label="KP% <= 0.607\ngini = 0.444\nsamples = 12\nvalue = [8, 4, 0, 0]\nclass = Cluster 0", fillcolor="#f2c09c"] ;
180 -> 200 ;
201 [label="gini = 0.0\nsamples = 8\nvalue = [8, 0, 0, 0]\nclass = Cluster 0", fillcolor="#e58139"] ;
200 -> 201 ;
202 [label="gini = 0.0\nsamples = 4\nvalue = [0, 4, 0, 0]\nclass = Cluster 1", fillcolor="#47e539"] ;
200 -> 202 ;
203 [label="KDA <= 4.85\ngini = 0.415\nsamples = 17\nvalue = [12, 5, 0, 0]\nclass = Cluster 0", fillcolor="#f0b58b"] ;
179 -> 203 ;
204 [label="LVLD@15 <= 0.5\ngini = 0.142\nsamples = 13\nvalue = [12, 1, 0, 0]\nclass = Cluster 0", fillcolor="#e78c49"] ;
203 -> 204 ;
205 [label="gini = 0.0\nsamples = 12\nvalue = [12, 0, 0, 0]\nclass = Cluster 0", fillcolor="#e58139"] ;
204 -> 205 ;
206 [label="gini = 0.0\nsamples = 1\nvalue = [0, 1, 0, 0]\nclass = Cluster 1", fillcolor="#47e539"] ;
204 -> 206 ;
207 [label="gini = 0.0\nsamples = 4\nvalue = [0, 4, 0, 0]\nclass = Cluster 1", fillcolor="#47e539"] ;
203 -> 207 ;
208 [label="gini = 0.0\nsamples = 2\nvalue = [0, 0, 0, 2]\nclass = Cluster 3", fillcolor="#d739e5"] ;
178 -> 208 ;
209 [label="Physical Damage <= 1065.5\ngini = 0.444\nsamples = 3\nvalue = [0, 0, 2, 1]\nclass = Cluster 2", fillcolor="#9ccef2"] ;
177 -> 209 ;
210 [label="gini = 0.0\nsamples = 2\nvalue = [0, 0, 2, 0]\nclass = Cluster 2", fillcolor="#399de5"] ;
209 -> 210 ;
211 [label="gini = 0.0\nsamples = 1\nvalue = [0, 0, 0, 1]\nclass = Cluster 3", fillcolor="#d739e5"] ;
209 -> 211 ;
212 [label="gini = 0.0\nsamples = 4\nvalue = [0, 4, 0, 0]\nclass = Cluster 1", fillcolor="#47e539"] ;
176 -> 212 ;
213 [label="Wards placed <= 16.5\ngini = 0.536\nsamples = 146\nvalue = [90, 14, 2, 40]\nclass = Cluster 0", fillcolor="#f3c4a2"] ;
175 -> 213 ;
214 [label="GD@15 <= 154.0\ngini = 0.469\nsamples = 127\nvalue = [88, 14, 0, 25]\nclass = Cluster 0", fillcolor="#efb185"] ;
213 -> 214 ;
215 [label="CSM <= 10.5\ngini = 0.294\nsamples = 93\nvalue = [77, 3, 0, 13]\nclass = Cluster 0", fillcolor="#ea9a61"] ;
214 -> 215 ;
216 [label="VWPM <= 0.255\ngini = 0.227\nsamples = 87\nvalue = [76, 3, 0, 8]\nclass = Cluster 0", fillcolor="#e99355"] ;
215 -> 216 ;
217 [label="DPM <= 512.5\ngini = 0.123\nsamples = 77\nvalue = [72, 3, 0, 2]\nclass = Cluster 0", fillcolor="#e78a46"] ;
216 -> 217 ;
218 [label="Time ccing others <= 0.5\ngini = 0.029\nsamples = 67\nvalue = [66, 0, 0, 1]\nclass = Cluster 0", fillcolor="#e5833c"] ;
217 -> 218 ;
219 [label="Assists <= 1.5\ngini = 0.444\nsamples = 3\nvalue = [2, 0, 0, 1]\nclass = Cluster 0", fillcolor="#f2c09c"] ;
218 -> 219 ;
220 [label="gini = 0.0\nsamples = 1\nvalue = [0, 0, 0, 1]\nclass = Cluster 3", fillcolor="#d739e5"] ;
219 -> 220 ;
221 [label="gini = 0.0\nsamples = 2\nvalue = [2, 0, 0, 0]\nclass = Cluster 0", fillcolor="#e58139"] ;
219 -> 221 ;
222 [label="gini = 0.0\nsamples = 64\nvalue = [64, 0, 0, 0]\nclass = Cluster 0", fillcolor="#e58139"] ;
218 -> 222 ;
223 [label="K+A Per Minute <= 0.255\ngini = 0.54\nsamples = 10\nvalue = [6, 3, 0, 1]\nclass = Cluster 0", fillcolor="#f4c9aa"] ;
217 -> 223 ;
224 [label="GPM <= 386.5\ngini = 0.245\nsamples = 7\nvalue = [6, 0, 0, 1]\nclass = Cluster 0", fillcolor="#e9965a"] ;
223 -> 224 ;
225 [label="gini = 0.0\nsamples = 1\nvalue = [0, 0, 0, 1]\nclass = Cluster 3", fillcolor="#d739e5"] ;
224 -> 225 ;
226 [label="gini = 0.0\nsamples = 6\nvalue = [6, 0, 0, 0]\nclass = Cluster 0", fillcolor="#e58139"] ;
224 -> 226 ;
227 [label="gini = 0.0\nsamples = 3\nvalue = [0, 3, 0, 0]\nclass = Cluster 1", fillcolor="#47e539"] ;
223 -> 227 ;
228 [label="Total damage to Champion <= 12491.5\ngini = 0.48\nsamples = 10\nvalue = [4, 0, 0, 6]\nclass = Cluster 3", fillcolor="#f2bdf6"] ;
216 -> 228 ;
229 [label="gini = 0.0\nsamples = 6\nvalue = [0, 0, 0, 6]\nclass = Cluster 3", fillcolor="#d739e5"] ;
228 -> 229 ;
230 [label="gini = 0.0\nsamples = 4\nvalue = [4, 0, 0, 0]\nclass = Cluster 0", fillcolor="#e58139"] ;
228 -> 230 ;
231 [label="CS in Team's Jungle <= 10.0\ngini = 0.278\nsamples = 6\nvalue = [1, 0, 0, 5]\nclass = Cluster 3", fillcolor="#df61ea"] ;
215 -> 231 ;
232 [label="gini = 0.0\nsamples = 1\nvalue = [1, 0, 0, 0]\nclass = Cluster 0", fillcolor="#e58139"] ;
231 -> 232 ;
233 [label="gini = 0.0\nsamples = 5\nvalue = [0, 0, 0, 5]\nclass = Cluster 3", fillcolor="#d739e5"] ;
231 -> 233 ;
234 [label="WCPM <= 0.195\ngini = 0.666\nsamples = 34\nvalue = [11, 11, 0, 12]\nclass = Cluster 3", fillcolor="#fdf6fe"] ;
214 -> 234 ;
235 [label="WPM <= 0.365\ngini = 0.391\nsamples = 15\nvalue = [4, 11, 0, 0]\nclass = Cluster 1", fillcolor="#8aee81"] ;
234 -> 235 ;
236 [label="gini = 0.0\nsamples = 11\nvalue = [0, 11, 0, 0]\nclass = Cluster 1", fillcolor="#47e539"] ;
235 -> 236 ;
237 [label="gini = 0.0\nsamples = 4\nvalue = [4, 0, 0, 0]\nclass = Cluster 0", fillcolor="#e58139"] ;
235 -> 237 ;
238 [label="DMG% <= 0.256\ngini = 0.465\nsamples = 19\nvalue = [7, 0, 0, 12]\nclass = Cluster 3", fillcolor="#eeacf4"] ;
234 -> 238 ;
239 [label="Physical Damage <= 267.0\ngini = 0.245\nsamples = 7\nvalue = [6, 0, 0, 1]\nclass = Cluster 0", fillcolor="#e9965a"] ;
238 -> 239 ;
240 [label="gini = 0.0\nsamples = 1\nvalue = [0, 0, 0, 1]\nclass = Cluster 3", fillcolor="#d739e5"] ;
239 -> 240 ;
241 [label="gini = 0.0\nsamples = 6\nvalue = [6, 0, 0, 0]\nclass = Cluster 0", fillcolor="#e58139"] ;
239 -> 241 ;
242 [label="Time ccing others <= 16.5\ngini = 0.153\nsamples = 12\nvalue = [1, 0, 0, 11]\nclass = Cluster 3", fillcolor="#db4be7"] ;
238 -> 242 ;
243 [label="gini = 0.0\nsamples = 11\nvalue = [0, 0, 0, 11]\nclass = Cluster 3", fillcolor="#d739e5"] ;
242 -> 243 ;
244 [label="gini = 0.0\nsamples = 1\nvalue = [1, 0, 0, 0]\nclass = Cluster 0", fillcolor="#e58139"] ;
242 -> 244 ;
245 [label="WCPM <= 0.095\ngini = 0.355\nsamples = 19\nvalue = [2, 0, 2, 15]\nclass = Cluster 3", fillcolor="#e068eb"] ;
213 -> 245 ;
246 [label="gini = 0.0\nsamples = 2\nvalue = [0, 0, 2, 0]\nclass = Cluster 2", fillcolor="#399de5"] ;
245 -> 246 ;
247 [label="CS <= 280.5\ngini = 0.208\nsamples = 17\nvalue = [2, 0, 0, 15]\nclass = Cluster 3", fillcolor="#dc53e8"] ;
245 -> 247 ;
248 [label="Magic Damage <= 14655.0\ngini = 0.444\nsamples = 3\nvalue = [2, 0, 0, 1]\nclass = Cluster 0", fillcolor="#f2c09c"] ;
247 -> 248 ;
249 [label="gini = 0.0\nsamples = 2\nvalue = [2, 0, 0, 0]\nclass = Cluster 0", fillcolor="#e58139"] ;
248 -> 249 ;
250 [label="gini = 0.0\nsamples = 1\nvalue = [0, 0, 0, 1]\nclass = Cluster 3", fillcolor="#d739e5"] ;
248 -> 250 ;
251 [label="gini = 0.0\nsamples = 14\nvalue = [0, 0, 0, 14]\nclass = Cluster 3", fillcolor="#d739e5"] ;
247 -> 251 ;
252 [label="Magic Damage <= 11742.5\ngini = 0.569\nsamples = 104\nvalue = [54, 41, 1, 8]\nclass = Cluster 0", fillcolor="#fae5d6"] ;
174 -> 252 ;
253 [label="VS% <= 0.157\ngini = 0.337\nsamples = 50\nvalue = [40, 3, 0, 7]\nclass = Cluster 0", fillcolor="#eb9e67"] ;
252 -> 253 ;
254 [label="K+A Per Minute <= 0.235\ngini = 0.235\nsamples = 46\nvalue = [40, 3, 0, 3]\nclass = Cluster 0", fillcolor="#e99355"] ;
253 -> 254 ;
255 [label="gini = 0.0\nsamples = 3\nvalue = [0, 0, 0, 3]\nclass = Cluster 3", fillcolor="#d739e5"] ;
254 -> 255 ;
256 [label="KDA <= 16.5\ngini = 0.13\nsamples = 43\nvalue = [40, 3, 0, 0]\nclass = Cluster 0", fillcolor="#e78a48"] ;
254 -> 256 ;
257 [label="XPD@15 <= 245.5\ngini = 0.091\nsamples = 42\nvalue = [40, 2, 0, 0]\nclass = Cluster 0", fillcolor="#e68743"] ;
256 -> 257 ;
258 [label="CS in Team's Jungle <= 31.0\ngini = 0.048\nsamples = 41\nvalue = [40, 1, 0, 0]\nclass = Cluster 0", fillcolor="#e6843e"] ;
257 -> 258 ;
259 [label="gini = 0.0\nsamples = 40\nvalue = [40, 0, 0, 0]\nclass = Cluster 0", fillcolor="#e58139"] ;
258 -> 259 ;
260 [label="gini = 0.0\nsamples = 1\nvalue = [0, 1, 0, 0]\nclass = Cluster 1", fillcolor="#47e539"] ;
258 -> 260 ;
261 [label="gini = 0.0\nsamples = 1\nvalue = [0, 1, 0, 0]\nclass = Cluster 1", fillcolor="#47e539"] ;
257 -> 261 ;
262 [label="gini = 0.0\nsamples = 1\nvalue = [0, 1, 0, 0]\nclass = Cluster 1", fillcolor="#47e539"] ;
256 -> 262 ;
263 [label="gini = 0.0\nsamples = 4\nvalue = [0, 0, 0, 4]\nclass = Cluster 3", fillcolor="#d739e5"] ;
253 -> 263 ;
264 [label="XPD@15 <= -379.0\ngini = 0.437\nsamples = 54\nvalue = [14, 38, 1, 1]\nclass = Cluster 1", fillcolor="#91ef88"] ;
252 -> 264 ;
265 [label="CSD@15 <= -4.0\ngini = 0.436\nsamples = 15\nvalue = [11, 2, 1, 1]\nclass = Cluster 0", fillcolor="#eda876"] ;
264 -> 265 ;
266 [label="VS% <= 0.135\ngini = 0.272\nsamples = 13\nvalue = [11, 0, 1, 1]\nclass = Cluster 0", fillcolor="#e9965a"] ;
265 -> 266 ;
267 [label="gini = 0.0\nsamples = 11\nvalue = [11, 0, 0, 0]\nclass = Cluster 0", fillcolor="#e58139"] ;
266 -> 267 ;
268 [label="CS in Team's Jungle <= 16.0\ngini = 0.5\nsamples = 2\nvalue = [0, 0, 1, 1]\nclass = Cluster 2", fillcolor="#ffffff"] ;
266 -> 268 ;
269 [label="gini = 0.0\nsamples = 1\nvalue = [0, 0, 1, 0]\nclass = Cluster 2", fillcolor="#399de5"] ;
268 -> 269 ;
270 [label="gini = 0.0\nsamples = 1\nvalue = [0, 0, 0, 1]\nclass = Cluster 3", fillcolor="#d739e5"] ;
268 -> 270 ;
271 [label="gini = 0.0\nsamples = 2\nvalue = [0, 2, 0, 0]\nclass = Cluster 1", fillcolor="#47e539"] ;
265 -> 271 ;
272 [label="GPM <= 386.5\ngini = 0.142\nsamples = 39\nvalue = [3, 36, 0, 0]\nclass = Cluster 1", fillcolor="#56e749"] ;
264 -> 272 ;
273 [label="gini = 0.0\nsamples = 2\nvalue = [2, 0, 0, 0]\nclass = Cluster 0", fillcolor="#e58139"] ;
272 -> 273 ;
274 [label="KP% <= 0.5\ngini = 0.053\nsamples = 37\nvalue = [1, 36, 0, 0]\nclass = Cluster 1", fillcolor="#4ce63e"] ;
272 -> 274 ;
275 [label="gini = 0.0\nsamples = 1\nvalue = [1, 0, 0, 0]\nclass = Cluster 0", fillcolor="#e58139"] ;
274 -> 275 ;
276 [label="gini = 0.0\nsamples = 36\nvalue = [0, 36, 0, 0]\nclass = Cluster 1", fillcolor="#47e539"] ;
274 -> 276 ;
277 [label="Magic Damage <= 11792.0\ngini = 0.599\nsamples = 206\nvalue = [67, 109, 5, 25]\nclass = Cluster 1", fillcolor="#c7f7c3"] ;
173 -> 277 ;
278 [label="VSPM <= 0.845\ngini = 0.554\nsamples = 88\nvalue = [52, 25, 0, 11]\nclass = Cluster 0", fillcolor="#f4c9aa"] ;
277 -> 278 ;
279 [label="gini = 0.0\nsamples = 25\nvalue = [25, 0, 0, 0]\nclass = Cluster 0", fillcolor="#e58139"] ;
278 -> 279 ;
280 [label="Deaths <= 2.5\ngini = 0.628\nsamples = 63\nvalue = [27, 25, 0, 11]\nclass = Cluster 0", fillcolor="#fef8f5"] ;
278 -> 280 ;
281 [label="GOLD% <= 0.193\ngini = 0.611\nsamples = 42\nvalue = [11, 22, 0, 9]\nclass = Cluster 1", fillcolor="#bef6b9"] ;
280 -> 281 ;
282 [label="VS% <= 0.158\ngini = 0.34\nsamples = 10\nvalue = [8, 1, 0, 1]\nclass = Cluster 0", fillcolor="#eb9d65"] ;
281 -> 282 ;
283 [label="gini = 0.0\nsamples = 8\nvalue = [8, 0, 0, 0]\nclass = Cluster 0", fillcolor="#e58139"] ;
282 -> 283 ;
284 [label="CS in Team's Jungle <= 2.0\ngini = 0.5\nsamples = 2\nvalue = [0, 1, 0, 1]\nclass = Cluster 1", fillcolor="#ffffff"] ;
282 -> 284 ;
285 [label="gini = 0.0\nsamples = 1\nvalue = [0, 0, 0, 1]\nclass = Cluster 3", fillcolor="#d739e5"] ;
284 -> 285 ;
286 [label="gini = 0.0\nsamples = 1\nvalue = [0, 1, 0, 0]\nclass = Cluster 1", fillcolor="#47e539"] ;
284 -> 286 ;
287 [label="Time ccing others <= 20.5\ngini = 0.498\nsamples = 32\nvalue = [3, 21, 0, 8]\nclass = Cluster 1", fillcolor="#9bf194"] ;
281 -> 287 ;
288 [label="Vision Score <= 35.5\ngini = 0.406\nsamples = 28\nvalue = [3, 21, 0, 4]\nclass = Cluster 1", fillcolor="#7ded73"] ;
287 -> 288 ;
289 [label="KP% <= 0.463\ngini = 0.234\nsamples = 23\nvalue = [2, 20, 0, 1]\nclass = Cluster 1", fillcolor="#61e955"] ;
288 -> 289 ;
290 [label="Golds <= 11394.5\ngini = 0.5\nsamples = 2\nvalue = [1, 0, 0, 1]\nclass = Cluster 0", fillcolor="#ffffff"] ;
289 -> 290 ;
291 [label="gini = 0.0\nsamples = 1\nvalue = [0, 0, 0, 1]\nclass = Cluster 3", fillcolor="#d739e5"] ;
290 -> 291 ;
292 [label="gini = 0.0\nsamples = 1\nvalue = [1, 0, 0, 0]\nclass = Cluster 0", fillcolor="#e58139"] ;
290 -> 292 ;
293 [label="Magic Damage <= 11701.5\ngini = 0.091\nsamples = 21\nvalue = [1, 20, 0, 0]\nclass = Cluster 1", fillcolor="#50e643"] ;
289 -> 293 ;
294 [label="gini = 0.0\nsamples = 20\nvalue = [0, 20, 0, 0]\nclass = Cluster 1", fillcolor="#47e539"] ;
293 -> 294 ;
295 [label="gini = 0.0\nsamples = 1\nvalue = [1, 0, 0, 0]\nclass = Cluster 0", fillcolor="#e58139"] ;
293 -> 295 ;
296 [label="Control Wards Purchased <= 7.0\ngini = 0.56\nsamples = 5\nvalue = [1, 1, 0, 3]\nclass = Cluster 3", fillcolor="#eb9cf2"] ;
288 -> 296 ;
297 [label="Game Duration <= 30.192\ngini = 0.5\nsamples = 2\nvalue = [1, 1, 0, 0]\nclass = Cluster 0", fillcolor="#ffffff"] ;
296 -> 297 ;
298 [label="gini = 0.0\nsamples = 1\nvalue = [0, 1, 0, 0]\nclass = Cluster 1", fillcolor="#47e539"] ;
297 -> 298 ;
299 [label="gini = 0.0\nsamples = 1\nvalue = [1, 0, 0, 0]\nclass = Cluster 0", fillcolor="#e58139"] ;
297 -> 299 ;
300 [label="gini = 0.0\nsamples = 3\nvalue = [0, 0, 0, 3]\nclass = Cluster 3", fillcolor="#d739e5"] ;
296 -> 300 ;
301 [label="gini = 0.0\nsamples = 4\nvalue = [0, 0, 0, 4]\nclass = Cluster 3", fillcolor="#d739e5"] ;
287 -> 301 ;
302 [label="Total damage to Champion <= 12224.0\ngini = 0.39\nsamples = 21\nvalue = [16, 3, 0, 2]\nclass = Cluster 0", fillcolor="#eca470"] ;
280 -> 302 ;
303 [label="gini = 0.0\nsamples = 16\nvalue = [16, 0, 0, 0]\nclass = Cluster 0", fillcolor="#e58139"] ;
302 -> 303 ;
304 [label="K+A Per Minute <= 0.085\ngini = 0.48\nsamples = 5\nvalue = [0, 3, 0, 2]\nclass = Cluster 1", fillcolor="#c2f6bd"] ;
302 -> 304 ;
305 [label="gini = 0.0\nsamples = 2\nvalue = [0, 0, 0, 2]\nclass = Cluster 3", fillcolor="#d739e5"] ;
304 -> 305 ;
306 [label="gini = 0.0\nsamples = 3\nvalue = [0, 3, 0, 0]\nclass = Cluster 1", fillcolor="#47e539"] ;
304 -> 306 ;
307 [label="WPM <= 0.565\ngini = 0.461\nsamples = 118\nvalue = [15, 84, 5, 14]\nclass = Cluster 1", fillcolor="#84ee7a"] ;
277 -> 307 ;
308 [label="KDA <= 2.15\ngini = 0.399\nsamples = 108\nvalue = [15, 82, 5, 6]\nclass = Cluster 1", fillcolor="#7aec70"] ;
307 -> 308 ;
309 [label="Vision Score <= 34.0\ngini = 0.678\nsamples = 37\nvalue = [12, 16, 4, 5]\nclass = Cluster 1", fillcolor="#e2fbdf"] ;
308 -> 309 ;
310 [label="LVLD@15 <= 0.5\ngini = 0.523\nsamples = 29\nvalue = [12, 16, 0, 1]\nclass = Cluster 1", fillcolor="#d4f9d0"] ;
309 -> 310 ;
311 [label="CS <= 296.5\ngini = 0.475\nsamples = 18\nvalue = [12, 5, 0, 1]\nclass = Cluster 0", fillcolor="#f1bb94"] ;
310 -> 311 ;
312 [label="WPM <= 0.485\ngini = 0.165\nsamples = 11\nvalue = [10, 0, 0, 1]\nclass = Cluster 0", fillcolor="#e88e4d"] ;
311 -> 312 ;
313 [label="gini = 0.0\nsamples = 10\nvalue = [10, 0, 0, 0]\nclass = Cluster 0", fillcolor="#e58139"] ;
312 -> 313 ;
314 [label="gini = 0.0\nsamples = 1\nvalue = [0, 0, 0, 1]\nclass = Cluster 3", fillcolor="#d739e5"] ;
312 -> 314 ;
315 [label="DMG% <= 0.27\ngini = 0.408\nsamples = 7\nvalue = [2, 5, 0, 0]\nclass = Cluster 1", fillcolor="#91ef88"] ;
311 -> 315 ;
316 [label="gini = 0.0\nsamples = 2\nvalue = [2, 0, 0, 0]\nclass = Cluster 0", fillcolor="#e58139"] ;
315 -> 316 ;
317 [label="gini = 0.0\nsamples = 5\nvalue = [0, 5, 0, 0]\nclass = Cluster 1", fillcolor="#47e539"] ;
315 -> 317 ;
318 [label="gini = 0.0\nsamples = 11\nvalue = [0, 11, 0, 0]\nclass = Cluster 1", fillcolor="#47e539"] ;
310 -> 318 ;
319 [label="Golds <= 14833.5\ngini = 0.5\nsamples = 8\nvalue = [0, 0, 4, 4]\nclass = Cluster 2", fillcolor="#ffffff"] ;
309 -> 319 ;
320 [label="gini = 0.0\nsamples = 4\nvalue = [0, 0, 0, 4]\nclass = Cluster 3", fillcolor="#d739e5"] ;
319 -> 320 ;
321 [label="gini = 0.0\nsamples = 4\nvalue = [0, 0, 4, 0]\nclass = Cluster 2", fillcolor="#399de5"] ;
319 -> 321 ;
322 [label="Control Wards Purchased <= 11.5\ngini = 0.134\nsamples = 71\nvalue = [3, 66, 1, 1]\nclass = Cluster 1", fillcolor="#55e748"] ;
308 -> 322 ;
323 [label="Total damage taken <= 25891.5\ngini = 0.084\nsamples = 69\nvalue = [2, 66, 1, 0]\nclass = Cluster 1", fillcolor="#4fe642"] ;
322 -> 323 ;
324 [label="CS <= 187.5\ngini = 0.029\nsamples = 67\nvalue = [1, 66, 0, 0]\nclass = Cluster 1", fillcolor="#4ae53c"] ;
323 -> 324 ;
325 [label="gini = 0.0\nsamples = 1\nvalue = [1, 0, 0, 0]\nclass = Cluster 0", fillcolor="#e58139"] ;
324 -> 325 ;
326 [label="gini = 0.0\nsamples = 66\nvalue = [0, 66, 0, 0]\nclass = Cluster 1", fillcolor="#47e539"] ;
324 -> 326 ;
327 [label="GOLD% <= 0.202\ngini = 0.5\nsamples = 2\nvalue = [1, 0, 1, 0]\nclass = Cluster 0", fillcolor="#ffffff"] ;
323 -> 327 ;
328 [label="gini = 0.0\nsamples = 1\nvalue = [1, 0, 0, 0]\nclass = Cluster 0", fillcolor="#e58139"] ;
327 -> 328 ;
329 [label="gini = 0.0\nsamples = 1\nvalue = [0, 0, 1, 0]\nclass = Cluster 2", fillcolor="#399de5"] ;
327 -> 329 ;
330 [label="XPD@15 <= 831.0\ngini = 0.5\nsamples = 2\nvalue = [1, 0, 0, 1]\nclass = Cluster 0", fillcolor="#ffffff"] ;
322 -> 330 ;
331 [label="gini = 0.0\nsamples = 1\nvalue = [1, 0, 0, 0]\nclass = Cluster 0", fillcolor="#e58139"] ;
330 -> 331 ;
332 [label="gini = 0.0\nsamples = 1\nvalue = [0, 0, 0, 1]\nclass = Cluster 3", fillcolor="#d739e5"] ;
330 -> 332 ;
333 [label="Game Duration <= 25.017\ngini = 0.32\nsamples = 10\nvalue = [0, 2, 0, 8]\nclass = Cluster 3", fillcolor="#e16aec"] ;
307 -> 333 ;
334 [label="gini = 0.0\nsamples = 2\nvalue = [0, 2, 0, 0]\nclass = Cluster 1", fillcolor="#47e539"] ;
333 -> 334 ;
335 [label="gini = 0.0\nsamples = 8\nvalue = [0, 0, 0, 8]\nclass = Cluster 3", fillcolor="#d739e5"] ;
333 -> 335 ;
336 [label="Golds <= 14229.0\ngini = 0.694\nsamples = 280\nvalue = [93, 65, 104, 18]\nclass = Cluster 2", fillcolor="#f3f9fd"] ;
2 -> 336 ;
337 [label="GD@15 <= 43.5\ngini = 0.65\nsamples = 169\nvalue = [81, 53, 17, 18]\nclass = Cluster 0", fillcolor="#f9e1cf"] ;
336 -> 337 ;
338 [label="KDA <= 3.25\ngini = 0.472\nsamples = 102\nvalue = [72, 7, 12, 11]\nclass = Cluster 0", fillcolor="#eeab7b"] ;
337 -> 338 ;
339 [label="Wards placed <= 18.5\ngini = 0.326\nsamples = 79\nvalue = [64, 3, 2, 10]\nclass = Cluster 0", fillcolor="#eb9c64"] ;
338 -> 339 ;
340 [label="GOLD% <= 0.247\ngini = 0.178\nsamples = 63\nvalue = [57, 3, 2, 1]\nclass = Cluster 0", fillcolor="#e88e4d"] ;
339 -> 340 ;
341 [label="Magic Damage <= 34003.5\ngini = 0.098\nsamples = 59\nvalue = [56, 1, 2, 0]\nclass = Cluster 0", fillcolor="#e68843"] ;
340 -> 341 ;
342 [label="Double kills <= 0.5\ngini = 0.067\nsamples = 58\nvalue = [56, 1, 1, 0]\nclass = Cluster 0", fillcolor="#e68540"] ;
341 -> 342 ;
343 [label="gini = 0.0\nsamples = 54\nvalue = [54, 0, 0, 0]\nclass = Cluster 0", fillcolor="#e58139"] ;
342 -> 343 ;
344 [label="KDA <= 1.15\ngini = 0.625\nsamples = 4\nvalue = [2, 1, 1, 0]\nclass = Cluster 0", fillcolor="#f6d5bd"] ;
342 -> 344 ;
345 [label="gini = 0.0\nsamples = 2\nvalue = [2, 0, 0, 0]\nclass = Cluster 0", fillcolor="#e58139"] ;
344 -> 345 ;
346 [label="Assists <= 3.5\ngini = 0.5\nsamples = 2\nvalue = [0, 1, 1, 0]\nclass = Cluster 1", fillcolor="#ffffff"] ;
344 -> 346 ;
347 [label="gini = 0.0\nsamples = 1\nvalue = [0, 0, 1, 0]\nclass = Cluster 2", fillcolor="#399de5"] ;
346 -> 347 ;
348 [label="gini = 0.0\nsamples = 1\nvalue = [0, 1, 0, 0]\nclass = Cluster 1", fillcolor="#47e539"] ;
346 -> 348 ;
349 [label="gini = 0.0\nsamples = 1\nvalue = [0, 0, 1, 0]\nclass = Cluster 2", fillcolor="#399de5"] ;
341 -> 349 ;
350 [label="CSD@15 <= 0.5\ngini = 0.625\nsamples = 4\nvalue = [1, 2, 0, 1]\nclass = Cluster 1", fillcolor="#c2f6bd"] ;
340 -> 350 ;
351 [label="Assists <= 0.5\ngini = 0.5\nsamples = 2\nvalue = [1, 0, 0, 1]\nclass = Cluster 0", fillcolor="#ffffff"] ;
350 -> 351 ;
352 [label="gini = 0.0\nsamples = 1\nvalue = [1, 0, 0, 0]\nclass = Cluster 0", fillcolor="#e58139"] ;
351 -> 352 ;
353 [label="gini = 0.0\nsamples = 1\nvalue = [0, 0, 0, 1]\nclass = Cluster 3", fillcolor="#d739e5"] ;
351 -> 353 ;
354 [label="gini = 0.0\nsamples = 2\nvalue = [0, 2, 0, 0]\nclass = Cluster 1", fillcolor="#47e539"] ;
350 -> 354 ;
355 [label="WCPM <= 0.105\ngini = 0.492\nsamples = 16\nvalue = [7, 0, 0, 9]\nclass = Cluster 3", fillcolor="#f6d3f9"] ;
339 -> 355 ;
356 [label="GPM <= 346.0\ngini = 0.346\nsamples = 9\nvalue = [7, 0, 0, 2]\nclass = Cluster 0", fillcolor="#eca572"] ;
355 -> 356 ;
357 [label="gini = 0.0\nsamples = 2\nvalue = [0, 0, 0, 2]\nclass = Cluster 3", fillcolor="#d739e5"] ;
356 -> 357 ;
358 [label="gini = 0.0\nsamples = 7\nvalue = [7, 0, 0, 0]\nclass = Cluster 0", fillcolor="#e58139"] ;
356 -> 358 ;
359 [label="gini = 0.0\nsamples = 7\nvalue = [0, 0, 0, 7]\nclass = Cluster 3", fillcolor="#d739e5"] ;
355 -> 359 ;
360 [label="Total damage to Champion <= 23901.5\ngini = 0.658\nsamples = 23\nvalue = [8, 4, 10, 1]\nclass = Cluster 2", fillcolor="#e5f2fc"] ;
338 -> 360 ;
361 [label="VS% <= 0.188\ngini = 0.219\nsamples = 8\nvalue = [7, 1, 0, 0]\nclass = Cluster 0", fillcolor="#e99355"] ;
360 -> 361 ;
362 [label="gini = 0.0\nsamples = 7\nvalue = [7, 0, 0, 0]\nclass = Cluster 0", fillcolor="#e58139"] ;
361 -> 362 ;
363 [label="gini = 0.0\nsamples = 1\nvalue = [0, 1, 0, 0]\nclass = Cluster 1", fillcolor="#47e539"] ;
361 -> 363 ;
364 [label="GD@15 <= -407.5\ngini = 0.507\nsamples = 15\nvalue = [1, 3, 10, 1]\nclass = Cluster 2", fillcolor="#8cc6f0"] ;
360 -> 364 ;
365 [label="KP% <= 0.748\ngini = 0.56\nsamples = 5\nvalue = [1, 3, 1, 0]\nclass = Cluster 1", fillcolor="#a3f29c"] ;
364 -> 365 ;
366 [label="KP% <= 0.583\ngini = 0.5\nsamples = 2\nvalue = [1, 0, 1, 0]\nclass = Cluster 0", fillcolor="#ffffff"] ;
365 -> 366 ;
367 [label="gini = 0.0\nsamples = 1\nvalue = [1, 0, 0, 0]\nclass = Cluster 0", fillcolor="#e58139"] ;
366 -> 367 ;
368 [label="gini = 0.0\nsamples = 1\nvalue = [0, 0, 1, 0]\nclass = Cluster 2", fillcolor="#399de5"] ;
366 -> 368 ;
369 [label="gini = 0.0\nsamples = 3\nvalue = [0, 3, 0, 0]\nclass = Cluster 1", fillcolor="#47e539"] ;
365 -> 369 ;
370 [label="Kills <= 2.5\ngini = 0.18\nsamples = 10\nvalue = [0, 0, 9, 1]\nclass = Cluster 2", fillcolor="#4fa8e8"] ;
364 -> 370 ;
371 [label="gini = 0.0\nsamples = 1\nvalue = [0, 0, 0, 1]\nclass = Cluster 3", fillcolor="#d739e5"] ;
370 -> 371 ;
372 [label="gini = 0.0\nsamples = 9\nvalue = [0, 0, 9, 0]\nclass = Cluster 2", fillcolor="#399de5"] ;
370 -> 372 ;
373 [label="GPM <= 376.5\ngini = 0.494\nsamples = 67\nvalue = [9, 46, 5, 7]\nclass = Cluster 1", fillcolor="#8aee81"] ;
337 -> 373 ;
374 [label="Deaths <= 3.5\ngini = 0.705\nsamples = 20\nvalue = [7, 4, 2, 7]\nclass = Cluster 0", fillcolor="#ffffff"] ;
373 -> 374 ;
375 [label="WPM <= 0.405\ngini = 0.627\nsamples = 13\nvalue = [1, 3, 2, 7]\nclass = Cluster 3", fillcolor="#efb0f5"] ;
374 -> 375 ;
376 [label="Wards destroyed <= 7.5\ngini = 0.5\nsamples = 4\nvalue = [0, 2, 2, 0]\nclass = Cluster 1", fillcolor="#ffffff"] ;
375 -> 376 ;
377 [label="gini = 0.0\nsamples = 2\nvalue = [0, 2, 0, 0]\nclass = Cluster 1", fillcolor="#47e539"] ;
376 -> 377 ;
378 [label="gini = 0.0\nsamples = 2\nvalue = [0, 0, 2, 0]\nclass = Cluster 2", fillcolor="#399de5"] ;
376 -> 378 ;
379 [label="Wards destroyed <= 4.5\ngini = 0.37\nsamples = 9\nvalue = [1, 1, 0, 7]\nclass = Cluster 3", fillcolor="#e16aec"] ;
375 -> 379 ;
380 [label="Total heal <= 2613.0\ngini = 0.5\nsamples = 2\nvalue = [1, 1, 0, 0]\nclass = Cluster 0", fillcolor="#ffffff"] ;
379 -> 380 ;
381 [label="gini = 0.0\nsamples = 1\nvalue = [1, 0, 0, 0]\nclass = Cluster 0", fillcolor="#e58139"] ;
380 -> 381 ;
382 [label="gini = 0.0\nsamples = 1\nvalue = [0, 1, 0, 0]\nclass = Cluster 1", fillcolor="#47e539"] ;
380 -> 382 ;
383 [label="gini = 0.0\nsamples = 7\nvalue = [0, 0, 0, 7]\nclass = Cluster 3", fillcolor="#d739e5"] ;
379 -> 383 ;
384 [label="VWPM <= 0.095\ngini = 0.245\nsamples = 7\nvalue = [6, 1, 0, 0]\nclass = Cluster 0", fillcolor="#e9965a"] ;
374 -> 384 ;
385 [label="gini = 0.0\nsamples = 1\nvalue = [0, 1, 0, 0]\nclass = Cluster 1", fillcolor="#47e539"] ;
384 -> 385 ;
386 [label="gini = 0.0\nsamples = 6\nvalue = [6, 0, 0, 0]\nclass = Cluster 0", fillcolor="#e58139"] ;
384 -> 386 ;
387 [label="CSD@15 <= -8.0\ngini = 0.196\nsamples = 47\nvalue = [2, 42, 3, 0]\nclass = Cluster 1", fillcolor="#5ce850"] ;
373 -> 387 ;
388 [label="CS <= 262.5\ngini = 0.444\nsamples = 3\nvalue = [1, 0, 2, 0]\nclass = Cluster 2", fillcolor="#9ccef2"] ;
387 -> 388 ;
389 [label="gini = 0.0\nsamples = 2\nvalue = [0, 0, 2, 0]\nclass = Cluster 2", fillcolor="#399de5"] ;
388 -> 389 ;
390 [label="gini = 0.0\nsamples = 1\nvalue = [1, 0, 0, 0]\nclass = Cluster 0", fillcolor="#e58139"] ;
388 -> 390 ;
391 [label="WPM <= 0.545\ngini = 0.088\nsamples = 44\nvalue = [1, 42, 1, 0]\nclass = Cluster 1", fillcolor="#50e642"] ;
387 -> 391 ;
392 [label="Physical Damage <= 167.0\ngini = 0.045\nsamples = 43\nvalue = [0, 42, 1, 0]\nclass = Cluster 1", fillcolor="#4be63e"] ;
391 -> 392 ;
393 [label="gini = 0.0\nsamples = 1\nvalue = [0, 0, 1, 0]\nclass = Cluster 2", fillcolor="#399de5"] ;
392 -> 393 ;
394 [label="gini = 0.0\nsamples = 42\nvalue = [0, 42, 0, 0]\nclass = Cluster 1", fillcolor="#47e539"] ;
392 -> 394 ;
395 [label="gini = 0.0\nsamples = 1\nvalue = [1, 0, 0, 0]\nclass = Cluster 0", fillcolor="#e58139"] ;
391 -> 395 ;
396 [label="GD@15 <= 585.0\ngini = 0.362\nsamples = 111\nvalue = [12, 12, 87, 0]\nclass = Cluster 2", fillcolor="#69b5eb"] ;
336 -> 396 ;
397 [label="Total damage to Champion <= 22454.5\ngini = 0.241\nsamples = 95\nvalue = [11, 2, 82, 0]\nclass = Cluster 2", fillcolor="#58ace9"] ;
396 -> 397 ;
398 [label="Wards destroyed <= 9.0\ngini = 0.42\nsamples = 10\nvalue = [7, 0, 3, 0]\nclass = Cluster 0", fillcolor="#f0b78e"] ;
397 -> 398 ;
399 [label="gini = 0.0\nsamples = 7\nvalue = [7, 0, 0, 0]\nclass = Cluster 0", fillcolor="#e58139"] ;
398 -> 399 ;
400 [label="gini = 0.0\nsamples = 3\nvalue = [0, 0, 3, 0]\nclass = Cluster 2", fillcolor="#399de5"] ;
398 -> 400 ;
401 [label="XPD@15 <= -890.5\ngini = 0.133\nsamples = 85\nvalue = [4, 2, 79, 0]\nclass = Cluster 2", fillcolor="#48a4e7"] ;
397 -> 401 ;
402 [label="VWPM <= 0.135\ngini = 0.5\nsamples = 6\nvalue = [3, 0, 3, 0]\nclass = Cluster 0", fillcolor="#ffffff"] ;
401 -> 402 ;
403 [label="gini = 0.0\nsamples = 3\nvalue = [3, 0, 0, 0]\nclass = Cluster 0", fillcolor="#e58139"] ;
402 -> 403 ;
404 [label="gini = 0.0\nsamples = 3\nvalue = [0, 0, 3, 0]\nclass = Cluster 2", fillcolor="#399de5"] ;
402 -> 404 ;
405 [label="Physical Damage <= 14192.5\ngini = 0.074\nsamples = 79\nvalue = [1, 2, 76, 0]\nclass = Cluster 2", fillcolor="#41a1e6"] ;
401 -> 405 ;
406 [label="DMG% <= 0.446\ngini = 0.05\nsamples = 78\nvalue = [0, 2, 76, 0]\nclass = Cluster 2", fillcolor="#3ea0e6"] ;
405 -> 406 ;
407 [label="Solo kills <= 15.0\ngini = 0.026\nsamples = 77\nvalue = [0, 1, 76, 0]\nclass = Cluster 2", fillcolor="#3c9ee5"] ;
406 -> 407 ;
408 [label="gini = 0.0\nsamples = 75\nvalue = [0, 0, 75, 0]\nclass = Cluster 2", fillcolor="#399de5"] ;
407 -> 408 ;
409 [label="Total damage taken <= 21940.0\ngini = 0.5\nsamples = 2\nvalue = [0, 1, 1, 0]\nclass = Cluster 1", fillcolor="#ffffff"] ;
407 -> 409 ;
410 [label="gini = 0.0\nsamples = 1\nvalue = [0, 1, 0, 0]\nclass = Cluster 1", fillcolor="#47e539"] ;
409 -> 410 ;
411 [label="gini = 0.0\nsamples = 1\nvalue = [0, 0, 1, 0]\nclass = Cluster 2", fillcolor="#399de5"] ;
409 -> 411 ;
412 [label="gini = 0.0\nsamples = 1\nvalue = [0, 1, 0, 0]\nclass = Cluster 1", fillcolor="#47e539"] ;
406 -> 412 ;
413 [label="gini = 0.0\nsamples = 1\nvalue = [1, 0, 0, 0]\nclass = Cluster 0", fillcolor="#e58139"] ;
405 -> 413 ;
414 [label="True Damage <= 1229.0\ngini = 0.508\nsamples = 16\nvalue = [1, 10, 5, 0]\nclass = Cluster 1", fillcolor="#abf3a5"] ;
396 -> 414 ;
415 [label="gini = 0.0\nsamples = 9\nvalue = [0, 9, 0, 0]\nclass = Cluster 1", fillcolor="#47e539"] ;
414 -> 415 ;
416 [label="Magic Damage <= 19563.0\ngini = 0.449\nsamples = 7\nvalue = [1, 1, 5, 0]\nclass = Cluster 2", fillcolor="#7bbeee"] ;
414 -> 416 ;
417 [label="Time ccing others <= 25.5\ngini = 0.5\nsamples = 2\nvalue = [1, 1, 0, 0]\nclass = Cluster 0", fillcolor="#ffffff"] ;
416 -> 417 ;
418 [label="gini = 0.0\nsamples = 1\nvalue = [0, 1, 0, 0]\nclass = Cluster 1", fillcolor="#47e539"] ;
417 -> 418 ;
419 [label="gini = 0.0\nsamples = 1\nvalue = [1, 0, 0, 0]\nclass = Cluster 0", fillcolor="#e58139"] ;
417 -> 419 ;
420 [label="gini = 0.0\nsamples = 5\nvalue = [0, 0, 5, 0]\nclass = Cluster 2", fillcolor="#399de5"] ;
416 -> 420 ;
421 [label="Total damage to Champion <= 24576.5\ngini = 0.531\nsamples = 1862\nvalue = [297, 30, 343, 1192]\nclass = Cluster 3", fillcolor="#e990f0"] ;
1 -> 421 ;
422 [label="Vision Score <= 42.5\ngini = 0.429\nsamples = 1540\nvalue = [290, 26, 102, 1122]\nclass = Cluster 3", fillcolor="#e47bee"] ;
421 -> 422 ;
423 [label="XPD@15 <= -172.0\ngini = 0.577\nsamples = 436\nvalue = [195, 16, 21, 204]\nclass = Cluster 3", fillcolor="#fef8fe"] ;
422 -> 423 ;
424 [label="Wards placed <= 15.5\ngini = 0.473\nsamples = 206\nvalue = [134, 0, 6, 66]\nclass = Cluster 0", fillcolor="#f2c29f"] ;
423 -> 424 ;
425 [label="LVLD@15 <= -0.5\ngini = 0.312\nsamples = 104\nvalue = [85, 0, 5, 14]\nclass = Cluster 0", fillcolor="#ea9c63"] ;
424 -> 425 ;
426 [label="GOLD% <= 0.25\ngini = 0.036\nsamples = 54\nvalue = [53, 0, 0, 1]\nclass = Cluster 0", fillcolor="#e5833d"] ;
425 -> 426 ;
427 [label="gini = 0.0\nsamples = 53\nvalue = [53, 0, 0, 0]\nclass = Cluster 0", fillcolor="#e58139"] ;
426 -> 427 ;
428 [label="gini = 0.0\nsamples = 1\nvalue = [0, 0, 0, 1]\nclass = Cluster 3", fillcolor="#d739e5"] ;
426 -> 428 ;
429 [label="Total heal <= 4258.5\ngini = 0.513\nsamples = 50\nvalue = [32, 0, 5, 13]\nclass = Cluster 0", fillcolor="#f2be99"] ;
425 -> 429 ;
430 [label="GOLD% <= 0.232\ngini = 0.329\nsamples = 36\nvalue = [29, 0, 2, 5]\nclass = Cluster 0", fillcolor="#eb9d66"] ;
429 -> 430 ;
431 [label="DPM <= 559.0\ngini = 0.179\nsamples = 31\nvalue = [28, 0, 2, 1]\nclass = Cluster 0", fillcolor="#e88e4d"] ;
430 -> 431 ;
432 [label="gini = 0.0\nsamples = 28\nvalue = [28, 0, 0, 0]\nclass = Cluster 0", fillcolor="#e58139"] ;
431 -> 432 ;
433 [label="Total damage taken <= 17072.0\ngini = 0.444\nsamples = 3\nvalue = [0, 0, 2, 1]\nclass = Cluster 2", fillcolor="#9ccef2"] ;
431 -> 433 ;
434 [label="gini = 0.0\nsamples = 1\nvalue = [0, 0, 0, 1]\nclass = Cluster 3", fillcolor="#d739e5"] ;
433 -> 434 ;
435 [label="gini = 0.0\nsamples = 2\nvalue = [0, 0, 2, 0]\nclass = Cluster 2", fillcolor="#399de5"] ;
433 -> 435 ;
436 [label="Damage dealt to turrets <= 2747.5\ngini = 0.32\nsamples = 5\nvalue = [1, 0, 0, 4]\nclass = Cluster 3", fillcolor="#e16aec"] ;
430 -> 436 ;
437 [label="gini = 0.0\nsamples = 4\nvalue = [0, 0, 0, 4]\nclass = Cluster 3", fillcolor="#d739e5"] ;
436 -> 437 ;
438 [label="gini = 0.0\nsamples = 1\nvalue = [1, 0, 0, 0]\nclass = Cluster 0", fillcolor="#e58139"] ;
436 -> 438 ;
439 [label="Total damage taken <= 24345.0\ngini = 0.582\nsamples = 14\nvalue = [3, 0, 3, 8]\nclass = Cluster 3", fillcolor="#eda5f3"] ;
429 -> 439 ;
440 [label="VSPM <= 0.98\ngini = 0.198\nsamples = 9\nvalue = [1, 0, 0, 8]\nclass = Cluster 3", fillcolor="#dc52e8"] ;
439 -> 440 ;
441 [label="gini = 0.0\nsamples = 1\nvalue = [1, 0, 0, 0]\nclass = Cluster 0", fillcolor="#e58139"] ;
440 -> 441 ;
442 [label="gini = 0.0\nsamples = 8\nvalue = [0, 0, 0, 8]\nclass = Cluster 3", fillcolor="#d739e5"] ;
440 -> 442 ;
443 [label="CS in Team's Jungle <= 26.0\ngini = 0.48\nsamples = 5\nvalue = [2, 0, 3, 0]\nclass = Cluster 2", fillcolor="#bddef6"] ;
439 -> 443 ;
444 [label="gini = 0.0\nsamples = 2\nvalue = [2, 0, 0, 0]\nclass = Cluster 0", fillcolor="#e58139"] ;
443 -> 444 ;
445 [label="gini = 0.0\nsamples = 3\nvalue = [0, 0, 3, 0]\nclass = Cluster 2", fillcolor="#399de5"] ;
443 -> 445 ;
446 [label="CSM <= 7.65\ngini = 0.509\nsamples = 102\nvalue = [49, 0, 1, 52]\nclass = Cluster 3", fillcolor="#fdf4fe"] ;
424 -> 446 ;
447 [label="Control Wards Purchased <= 10.0\ngini = 0.369\nsamples = 41\nvalue = [31, 0, 0, 10]\nclass = Cluster 0", fillcolor="#edaa79"] ;
446 -> 447 ;
448 [label="Damage dealt to turrets <= 8038.5\ngini = 0.133\nsamples = 28\nvalue = [26, 0, 0, 2]\nclass = Cluster 0", fillcolor="#e78b48"] ;
447 -> 448 ;
449 [label="gini = 0.0\nsamples = 26\nvalue = [26, 0, 0, 0]\nclass = Cluster 0", fillcolor="#e58139"] ;
448 -> 449 ;
450 [label="gini = 0.0\nsamples = 2\nvalue = [0, 0, 0, 2]\nclass = Cluster 3", fillcolor="#d739e5"] ;
448 -> 450 ;
451 [label="GOLD% <= 0.197\ngini = 0.473\nsamples = 13\nvalue = [5, 0, 0, 8]\nclass = Cluster 3", fillcolor="#f0b5f5"] ;
447 -> 451 ;
452 [label="XPD@15 <= -833.5\ngini = 0.278\nsamples = 6\nvalue = [5, 0, 0, 1]\nclass = Cluster 0", fillcolor="#ea9a61"] ;
451 -> 452 ;
453 [label="gini = 0.0\nsamples = 1\nvalue = [0, 0, 0, 1]\nclass = Cluster 3", fillcolor="#d739e5"] ;
452 -> 453 ;
454 [label="gini = 0.0\nsamples = 5\nvalue = [5, 0, 0, 0]\nclass = Cluster 0", fillcolor="#e58139"] ;
452 -> 454 ;
455 [label="gini = 0.0\nsamples = 7\nvalue = [0, 0, 0, 7]\nclass = Cluster 3", fillcolor="#d739e5"] ;
451 -> 455 ;
456 [label="VWPM <= 0.145\ngini = 0.439\nsamples = 61\nvalue = [18, 0, 1, 42]\nclass = Cluster 3", fillcolor="#e990f0"] ;
446 -> 456 ;
457 [label="Wards destroyed <= 11.5\ngini = 0.278\nsamples = 6\nvalue = [5, 0, 0, 1]\nclass = Cluster 0", fillcolor="#ea9a61"] ;
456 -> 457 ;
458 [label="gini = 0.0\nsamples = 5\nvalue = [5, 0, 0, 0]\nclass = Cluster 0", fillcolor="#e58139"] ;
457 -> 458 ;
459 [label="gini = 0.0\nsamples = 1\nvalue = [0, 0, 0, 1]\nclass = Cluster 3", fillcolor="#d739e5"] ;
457 -> 459 ;
460 [label="Wards destroyed <= 8.5\ngini = 0.388\nsamples = 55\nvalue = [13, 0, 1, 41]\nclass = Cluster 3", fillcolor="#e47bee"] ;
456 -> 460 ;
461 [label="CS <= 304.5\ngini = 0.512\nsamples = 31\nvalue = [12, 0, 1, 18]\nclass = Cluster 3", fillcolor="#f2c0f7"] ;
460 -> 461 ;
462 [label="Total heal <= 3856.0\ngini = 0.391\nsamples = 15\nvalue = [11, 0, 0, 4]\nclass = Cluster 0", fillcolor="#eeaf81"] ;
461 -> 462 ;
463 [label="GD@15 <= -3.5\ngini = 0.26\nsamples = 13\nvalue = [11, 0, 0, 2]\nclass = Cluster 0", fillcolor="#ea985d"] ;
462 -> 463 ;
464 [label="gini = 0.0\nsamples = 10\nvalue = [10, 0, 0, 0]\nclass = Cluster 0", fillcolor="#e58139"] ;
463 -> 464 ;
465 [label="Physical Damage <= 824.5\ngini = 0.444\nsamples = 3\nvalue = [1, 0, 0, 2]\nclass = Cluster 3", fillcolor="#eb9cf2"] ;
463 -> 465 ;
466 [label="gini = 0.0\nsamples = 2\nvalue = [0, 0, 0, 2]\nclass = Cluster 3", fillcolor="#d739e5"] ;
465 -> 466 ;
467 [label="gini = 0.0\nsamples = 1\nvalue = [1, 0, 0, 0]\nclass = Cluster 0", fillcolor="#e58139"] ;
465 -> 467 ;
468 [label="gini = 0.0\nsamples = 2\nvalue = [0, 0, 0, 2]\nclass = Cluster 3", fillcolor="#d739e5"] ;
462 -> 468 ;
469 [label="Magic Damage <= 19164.5\ngini = 0.227\nsamples = 16\nvalue = [1, 0, 1, 14]\nclass = Cluster 3", fillcolor="#dc53e8"] ;
461 -> 469 ;
470 [label="gini = 0.0\nsamples = 14\nvalue = [0, 0, 0, 14]\nclass = Cluster 3", fillcolor="#d739e5"] ;
469 -> 470 ;
471 [label="CS in Team's Jungle <= 28.0\ngini = 0.5\nsamples = 2\nvalue = [1, 0, 1, 0]\nclass = Cluster 0", fillcolor="#ffffff"] ;
469 -> 471 ;
472 [label="gini = 0.0\nsamples = 1\nvalue = [1, 0, 0, 0]\nclass = Cluster 0", fillcolor="#e58139"] ;
471 -> 472 ;
473 [label="gini = 0.0\nsamples = 1\nvalue = [0, 0, 1, 0]\nclass = Cluster 2", fillcolor="#399de5"] ;
471 -> 473 ;
474 [label="VWPM <= 0.345\ngini = 0.08\nsamples = 24\nvalue = [1, 0, 0, 23]\nclass = Cluster 3", fillcolor="#d942e6"] ;
460 -> 474 ;
475 [label="gini = 0.0\nsamples = 23\nvalue = [0, 0, 0, 23]\nclass = Cluster 3", fillcolor="#d739e5"] ;
474 -> 475 ;
476 [label="gini = 0.0\nsamples = 1\nvalue = [1, 0, 0, 0]\nclass = Cluster 0", fillcolor="#e58139"] ;
474 -> 476 ;
477 [label="KDA <= 1.65\ngini = 0.561\nsamples = 230\nvalue = [61, 16, 15, 138]\nclass = Cluster 3", fillcolor="#eda5f3"] ;
423 -> 477 ;
478 [label="GOLD% <= 0.227\ngini = 0.515\nsamples = 75\nvalue = [42, 1, 1, 31]\nclass = Cluster 0", fillcolor="#f8e0cd"] ;
477 -> 478 ;
479 [label="VWPM <= 0.285\ngini = 0.42\nsamples = 54\nvalue = [39, 1, 1, 13]\nclass = Cluster 0", fillcolor="#efaf81"] ;
478 -> 479 ;
480 [label="WCPM <= 0.255\ngini = 0.323\nsamples = 47\nvalue = [38, 1, 1, 7]\nclass = Cluster 0", fillcolor="#eb9d66"] ;
479 -> 480 ;
481 [label="Wards placed <= 20.5\ngini = 0.067\nsamples = 29\nvalue = [28, 0, 1, 0]\nclass = Cluster 0", fillcolor="#e68640"] ;
480 -> 481 ;
482 [label="gini = 0.0\nsamples = 28\nvalue = [28, 0, 0, 0]\nclass = Cluster 0", fillcolor="#e58139"] ;
481 -> 482 ;
483 [label="gini = 0.0\nsamples = 1\nvalue = [0, 0, 1, 0]\nclass = Cluster 2", fillcolor="#399de5"] ;
481 -> 483 ;
484 [label="CSD@15 <= 2.5\ngini = 0.537\nsamples = 18\nvalue = [10, 1, 0, 7]\nclass = Cluster 0", fillcolor="#f8ddc9"] ;
480 -> 484 ;
485 [label="gini = 0.0\nsamples = 8\nvalue = [8, 0, 0, 0]\nclass = Cluster 0", fillcolor="#e58139"] ;
484 -> 485 ;
486 [label="GPM <= 353.5\ngini = 0.46\nsamples = 10\nvalue = [2, 1, 0, 7]\nclass = Cluster 3", fillcolor="#e683ef"] ;
484 -> 486 ;
487 [label="gini = 0.0\nsamples = 7\nvalue = [0, 0, 0, 7]\nclass = Cluster 3", fillcolor="#d739e5"] ;
486 -> 487 ;
488 [label="VSPM <= 1.155\ngini = 0.444\nsamples = 3\nvalue = [2, 1, 0, 0]\nclass = Cluster 0", fillcolor="#f2c09c"] ;
486 -> 488 ;
489 [label="gini = 0.0\nsamples = 1\nvalue = [0, 1, 0, 0]\nclass = Cluster 1", fillcolor="#47e539"] ;
488 -> 489 ;
490 [label="gini = 0.0\nsamples = 2\nvalue = [2, 0, 0, 0]\nclass = Cluster 0", fillcolor="#e58139"] ;
488 -> 490 ;
491 [label="WCPM <= 0.16\ngini = 0.245\nsamples = 7\nvalue = [1, 0, 0, 6]\nclass = Cluster 3", fillcolor="#de5ae9"] ;
479 -> 491 ;
492 [label="gini = 0.0\nsamples = 1\nvalue = [1, 0, 0, 0]\nclass = Cluster 0", fillcolor="#e58139"] ;
491 -> 492 ;
493 [label="gini = 0.0\nsamples = 6\nvalue = [0, 0, 0, 6]\nclass = Cluster 3", fillcolor="#d739e5"] ;
491 -> 493 ;
494 [label="Wards placed <= 13.0\ngini = 0.245\nsamples = 21\nvalue = [3, 0, 0, 18]\nclass = Cluster 3", fillcolor="#de5ae9"] ;
478 -> 494 ;
495 [label="gini = 0.0\nsamples = 3\nvalue = [3, 0, 0, 0]\nclass = Cluster 0", fillcolor="#e58139"] ;
494 -> 495 ;
496 [label="gini = 0.0\nsamples = 18\nvalue = [0, 0, 0, 18]\nclass = Cluster 3", fillcolor="#d739e5"] ;
494 -> 496 ;
497 [label="CSM <= 7.95\ngini = 0.491\nsamples = 155\nvalue = [19, 15, 14, 107]\nclass = Cluster 3", fillcolor="#e57fee"] ;
477 -> 497 ;
498 [label="Magic Damage <= 19839.5\ngini = 0.706\nsamples = 59\nvalue = [14, 9, 11, 25]\nclass = Cluster 3", fillcolor="#f5cff9"] ;
497 -> 498 ;
499 [label="Damage dealt to turrets <= 2858.5\ngini = 0.661\nsamples = 52\nvalue = [14, 9, 4, 25]\nclass = Cluster 3", fillcolor="#f3c6f7"] ;
498 -> 499 ;
500 [label="Control Wards Purchased <= 4.5\ngini = 0.484\nsamples = 32\nvalue = [6, 2, 2, 22]\nclass = Cluster 3", fillcolor="#e685ef"] ;
499 -> 500 ;
501 [label="CS <= 291.0\ngini = 0.5\nsamples = 4\nvalue = [2, 2, 0, 0]\nclass = Cluster 0", fillcolor="#ffffff"] ;
500 -> 501 ;
502 [label="gini = 0.0\nsamples = 2\nvalue = [0, 2, 0, 0]\nclass = Cluster 1", fillcolor="#47e539"] ;
501 -> 502 ;
503 [label="gini = 0.0\nsamples = 2\nvalue = [2, 0, 0, 0]\nclass = Cluster 0", fillcolor="#e58139"] ;
501 -> 503 ;
504 [label="CSM <= 7.45\ngini = 0.357\nsamples = 28\nvalue = [4, 0, 2, 22]\nclass = Cluster 3", fillcolor="#e16bec"] ;
500 -> 504 ;
505 [label="Golds <= 14144.5\ngini = 0.611\nsamples = 12\nvalue = [4, 0, 2, 6]\nclass = Cluster 3", fillcolor="#f5cef8"] ;
504 -> 505 ;
506 [label="Physical Damage <= 992.5\ngini = 0.48\nsamples = 10\nvalue = [4, 0, 0, 6]\nclass = Cluster 3", fillcolor="#f2bdf6"] ;
505 -> 506 ;
507 [label="gini = 0.0\nsamples = 4\nvalue = [0, 0, 0, 4]\nclass = Cluster 3", fillcolor="#d739e5"] ;
506 -> 507 ;
508 [label="Assists <= 12.0\ngini = 0.444\nsamples = 6\nvalue = [4, 0, 0, 2]\nclass = Cluster 0", fillcolor="#f2c09c"] ;
506 -> 508 ;
509 [label="gini = 0.0\nsamples = 4\nvalue = [4, 0, 0, 0]\nclass = Cluster 0", fillcolor="#e58139"] ;
508 -> 509 ;
510 [label="gini = 0.0\nsamples = 2\nvalue = [0, 0, 0, 2]\nclass = Cluster 3", fillcolor="#d739e5"] ;
508 -> 510 ;
511 [label="gini = 0.0\nsamples = 2\nvalue = [0, 0, 2, 0]\nclass = Cluster 2", fillcolor="#399de5"] ;
505 -> 511 ;
512 [label="gini = 0.0\nsamples = 16\nvalue = [0, 0, 0, 16]\nclass = Cluster 3", fillcolor="#d739e5"] ;
504 -> 512 ;
513 [label="KDA <= 6.25\ngini = 0.685\nsamples = 20\nvalue = [8, 7, 2, 3]\nclass = Cluster 0", fillcolor="#fdf5f0"] ;
499 -> 513 ;
514 [label="Golds <= 14011.5\ngini = 0.43\nsamples = 11\nvalue = [8, 0, 1, 2]\nclass = Cluster 0", fillcolor="#eeab7b"] ;
513 -> 514 ;
515 [label="VS% <= 0.172\ngini = 0.198\nsamples = 9\nvalue = [8, 0, 0, 1]\nclass = Cluster 0", fillcolor="#e89152"] ;
514 -> 515 ;
516 [label="gini = 0.0\nsamples = 8\nvalue = [8, 0, 0, 0]\nclass = Cluster 0", fillcolor="#e58139"] ;
515 -> 516 ;
517 [label="gini = 0.0\nsamples = 1\nvalue = [0, 0, 0, 1]\nclass = Cluster 3", fillcolor="#d739e5"] ;
515 -> 517 ;
518 [label="GPM <= 357.5\ngini = 0.5\nsamples = 2\nvalue = [0, 0, 1, 1]\nclass = Cluster 2", fillcolor="#ffffff"] ;
514 -> 518 ;
519 [label="gini = 0.0\nsamples = 1\nvalue = [0, 0, 0, 1]\nclass = Cluster 3", fillcolor="#d739e5"] ;
518 -> 519 ;
520 [label="gini = 0.0\nsamples = 1\nvalue = [0, 0, 1, 0]\nclass = Cluster 2", fillcolor="#399de5"] ;
518 -> 520 ;
521 [label="XPD@15 <= 93.0\ngini = 0.37\nsamples = 9\nvalue = [0, 7, 1, 1]\nclass = Cluster 1", fillcolor="#75ec6a"] ;
513 -> 521 ;
522 [label="CS <= 269.5\ngini = 0.5\nsamples = 2\nvalue = [0, 0, 1, 1]\nclass = Cluster 2", fillcolor="#ffffff"] ;
521 -> 522 ;
523 [label="gini = 0.0\nsamples = 1\nvalue = [0, 0, 0, 1]\nclass = Cluster 3", fillcolor="#d739e5"] ;
522 -> 523 ;
524 [label="gini = 0.0\nsamples = 1\nvalue = [0, 0, 1, 0]\nclass = Cluster 2", fillcolor="#399de5"] ;
522 -> 524 ;
525 [label="gini = 0.0\nsamples = 7\nvalue = [0, 7, 0, 0]\nclass = Cluster 1", fillcolor="#47e539"] ;
521 -> 525 ;
526 [label="gini = 0.0\nsamples = 7\nvalue = [0, 0, 7, 0]\nclass = Cluster 2", fillcolor="#399de5"] ;
498 -> 526 ;
527 [label="VWPM <= 0.075\ngini = 0.263\nsamples = 96\nvalue = [5, 6, 3, 82]\nclass = Cluster 3", fillcolor="#dd58e9"] ;
497 -> 527 ;
528 [label="Wards placed <= 17.5\ngini = 0.32\nsamples = 5\nvalue = [0, 4, 0, 1]\nclass = Cluster 1", fillcolor="#75ec6a"] ;
527 -> 528 ;
529 [label="gini = 0.0\nsamples = 4\nvalue = [0, 4, 0, 0]\nclass = Cluster 1", fillcolor="#47e539"] ;
528 -> 529 ;
530 [label="gini = 0.0\nsamples = 1\nvalue = [0, 0, 0, 1]\nclass = Cluster 3", fillcolor="#d739e5"] ;
528 -> 530 ;
531 [label="Golds <= 16685.5\ngini = 0.203\nsamples = 91\nvalue = [5, 2, 3, 81]\nclass = Cluster 3", fillcolor="#dc50e8"] ;
527 -> 531 ;
532 [label="KDA <= 11.5\ngini = 0.168\nsamples = 89\nvalue = [5, 2, 1, 81]\nclass = Cluster 3", fillcolor="#db4ce7"] ;
531 -> 532 ;
533 [label="GOLD% <= 0.196\ngini = 0.111\nsamples = 85\nvalue = [5, 0, 0, 80]\nclass = Cluster 3", fillcolor="#da45e7"] ;
532 -> 533 ;
534 [label="KP% <= 0.483\ngini = 0.444\nsamples = 3\nvalue = [2, 0, 0, 1]\nclass = Cluster 0", fillcolor="#f2c09c"] ;
533 -> 534 ;
535 [label="gini = 0.0\nsamples = 1\nvalue = [0, 0, 0, 1]\nclass = Cluster 3", fillcolor="#d739e5"] ;
534 -> 535 ;
536 [label="gini = 0.0\nsamples = 2\nvalue = [2, 0, 0, 0]\nclass = Cluster 0", fillcolor="#e58139"] ;
534 -> 536 ;
537 [label="WPM <= 0.27\ngini = 0.07\nsamples = 82\nvalue = [3, 0, 0, 79]\nclass = Cluster 3", fillcolor="#d941e6"] ;
533 -> 537 ;
538 [label="Vision Score <= 39.5\ngini = 0.444\nsamples = 3\nvalue = [2, 0, 0, 1]\nclass = Cluster 0", fillcolor="#f2c09c"] ;
537 -> 538 ;
539 [label="gini = 0.0\nsamples = 2\nvalue = [2, 0, 0, 0]\nclass = Cluster 0", fillcolor="#e58139"] ;
538 -> 539 ;
540 [label="gini = 0.0\nsamples = 1\nvalue = [0, 0, 0, 1]\nclass = Cluster 3", fillcolor="#d739e5"] ;
538 -> 540 ;
541 [label="Damage dealt to turrets <= 20.5\ngini = 0.025\nsamples = 79\nvalue = [1, 0, 0, 78]\nclass = Cluster 3", fillcolor="#d83ce5"] ;
537 -> 541 ;
542 [label="Wards placed <= 18.0\ngini = 0.375\nsamples = 4\nvalue = [1, 0, 0, 3]\nclass = Cluster 3", fillcolor="#e47bee"] ;
541 -> 542 ;
543 [label="gini = 0.0\nsamples = 1\nvalue = [1, 0, 0, 0]\nclass = Cluster 0", fillcolor="#e58139"] ;
542 -> 543 ;
544 [label="gini = 0.0\nsamples = 3\nvalue = [0, 0, 0, 3]\nclass = Cluster 3", fillcolor="#d739e5"] ;
542 -> 544 ;
545 [label="gini = 0.0\nsamples = 75\nvalue = [0, 0, 0, 75]\nclass = Cluster 3", fillcolor="#d739e5"] ;
541 -> 545 ;
546 [label="CS <= 342.5\ngini = 0.625\nsamples = 4\nvalue = [0, 2, 1, 1]\nclass = Cluster 1", fillcolor="#c2f6bd"] ;
532 -> 546 ;
547 [label="K+A Per Minute <= 0.365\ngini = 0.5\nsamples = 2\nvalue = [0, 0, 1, 1]\nclass = Cluster 2", fillcolor="#ffffff"] ;
546 -> 547 ;
548 [label="gini = 0.0\nsamples = 1\nvalue = [0, 0, 0, 1]\nclass = Cluster 3", fillcolor="#d739e5"] ;
547 -> 548 ;
549 [label="gini = 0.0\nsamples = 1\nvalue = [0, 0, 1, 0]\nclass = Cluster 2", fillcolor="#399de5"] ;
547 -> 549 ;
550 [label="gini = 0.0\nsamples = 2\nvalue = [0, 2, 0, 0]\nclass = Cluster 1", fillcolor="#47e539"] ;
546 -> 550 ;
551 [label="gini = 0.0\nsamples = 2\nvalue = [0, 0, 2, 0]\nclass = Cluster 2", fillcolor="#399de5"] ;
531 -> 551 ;
552 [label="WPM <= 0.565\ngini = 0.296\nsamples = 1104\nvalue = [95, 10, 81, 918]\nclass = Cluster 3", fillcolor="#de5dea"] ;
422 -> 552 ;
553 [label="Total damage to Champion <= 18439.0\ngini = 0.445\nsamples = 639\nvalue = [89, 10, 79, 461]\nclass = Cluster 3", fillcolor="#e479ed"] ;
552 -> 553 ;
554 [label="GPM <= 339.5\ngini = 0.337\nsamples = 420\nvalue = [77, 1, 9, 333]\nclass = Cluster 3", fillcolor="#e16bec"] ;
553 -> 554 ;
555 [label="Vision Score <= 50.5\ngini = 0.506\nsamples = 70\nvalue = [39, 0, 1, 30]\nclass = Cluster 0", fillcolor="#f9e3d2"] ;
554 -> 555 ;
556 [label="VWPM <= 0.245\ngini = 0.373\nsamples = 46\nvalue = [35, 0, 1, 10]\nclass = Cluster 0", fillcolor="#eda875"] ;
555 -> 556 ;
557 [label="Game Duration <= 31.108\ngini = 0.067\nsamples = 29\nvalue = [28, 0, 0, 1]\nclass = Cluster 0", fillcolor="#e68640"] ;
556 -> 557 ;
558 [label="gini = 0.0\nsamples = 1\nvalue = [0, 0, 0, 1]\nclass = Cluster 3", fillcolor="#d739e5"] ;
557 -> 558 ;
559 [label="gini = 0.0\nsamples = 28\nvalue = [28, 0, 0, 0]\nclass = Cluster 0", fillcolor="#e58139"] ;
557 -> 559 ;
560 [label="Physical Damage <= 502.5\ngini = 0.547\nsamples = 17\nvalue = [7, 0, 1, 9]\nclass = Cluster 3", fillcolor="#f7d7fa"] ;
556 -> 560 ;
561 [label="gini = 0.0\nsamples = 7\nvalue = [0, 0, 0, 7]\nclass = Cluster 3", fillcolor="#d739e5"] ;
560 -> 561 ;
562 [label="KDA <= 1.1\ngini = 0.46\nsamples = 10\nvalue = [7, 0, 1, 2]\nclass = Cluster 0", fillcolor="#efb083"] ;
560 -> 562 ;
563 [label="gini = 0.0\nsamples = 6\nvalue = [6, 0, 0, 0]\nclass = Cluster 0", fillcolor="#e58139"] ;
562 -> 563 ;
564 [label="DPM <= 342.5\ngini = 0.625\nsamples = 4\nvalue = [1, 0, 1, 2]\nclass = Cluster 3", fillcolor="#f2bdf6"] ;
562 -> 564 ;
565 [label="CS in Team's Jungle <= 21.0\ngini = 0.5\nsamples = 2\nvalue = [1, 0, 1, 0]\nclass = Cluster 0", fillcolor="#ffffff"] ;
564 -> 565 ;
566 [label="gini = 0.0\nsamples = 1\nvalue = [1, 0, 0, 0]\nclass = Cluster 0", fillcolor="#e58139"] ;
565 -> 566 ;
567 [label="gini = 0.0\nsamples = 1\nvalue = [0, 0, 1, 0]\nclass = Cluster 2", fillcolor="#399de5"] ;
565 -> 567 ;
568 [label="gini = 0.0\nsamples = 2\nvalue = [0, 0, 0, 2]\nclass = Cluster 3", fillcolor="#d739e5"] ;
564 -> 568 ;
569 [label="CS <= 244.0\ngini = 0.278\nsamples = 24\nvalue = [4, 0, 0, 20]\nclass = Cluster 3", fillcolor="#df61ea"] ;
555 -> 569 ;
570 [label="Golds <= 10160.5\ngini = 0.32\nsamples = 5\nvalue = [4, 0, 0, 1]\nclass = Cluster 0", fillcolor="#eca06a"] ;
569 -> 570 ;
571 [label="gini = 0.0\nsamples = 1\nvalue = [0, 0, 0, 1]\nclass = Cluster 3", fillcolor="#d739e5"] ;
570 -> 571 ;
572 [label="gini = 0.0\nsamples = 4\nvalue = [4, 0, 0, 0]\nclass = Cluster 0", fillcolor="#e58139"] ;
570 -> 572 ;
573 [label="gini = 0.0\nsamples = 19\nvalue = [0, 0, 0, 19]\nclass = Cluster 3", fillcolor="#d739e5"] ;
569 -> 573 ;
574 [label="XPD@15 <= -538.5\ngini = 0.238\nsamples = 350\nvalue = [38, 1, 8, 303]\nclass = Cluster 3", fillcolor="#dd57e9"] ;
554 -> 574 ;
575 [label="Vision Score <= 48.5\ngini = 0.483\nsamples = 66\nvalue = [27, 0, 0, 39]\nclass = Cluster 3", fillcolor="#f3c2f7"] ;
574 -> 575 ;
576 [label="Physical Damage <= 2151.0\ngini = 0.408\nsamples = 35\nvalue = [25, 0, 0, 10]\nclass = Cluster 0", fillcolor="#efb388"] ;
575 -> 576 ;
577 [label="CSM <= 9.2\ngini = 0.191\nsamples = 28\nvalue = [25, 0, 0, 3]\nclass = Cluster 0", fillcolor="#e89051"] ;
576 -> 577 ;
578 [label="gini = 0.0\nsamples = 25\nvalue = [25, 0, 0, 0]\nclass = Cluster 0", fillcolor="#e58139"] ;
577 -> 578 ;
579 [label="gini = 0.0\nsamples = 3\nvalue = [0, 0, 0, 3]\nclass = Cluster 3", fillcolor="#d739e5"] ;
577 -> 579 ;
580 [label="gini = 0.0\nsamples = 7\nvalue = [0, 0, 0, 7]\nclass = Cluster 3", fillcolor="#d739e5"] ;
576 -> 580 ;
581 [label="DMG% <= 0.284\ngini = 0.121\nsamples = 31\nvalue = [2, 0, 0, 29]\nclass = Cluster 3", fillcolor="#da47e7"] ;
575 -> 581 ;
582 [label="gini = 0.0\nsamples = 29\nvalue = [0, 0, 0, 29]\nclass = Cluster 3", fillcolor="#d739e5"] ;
581 -> 582 ;
583 [label="gini = 0.0\nsamples = 2\nvalue = [2, 0, 0, 0]\nclass = Cluster 0", fillcolor="#e58139"] ;
581 -> 583 ;
584 [label="K+A Per Minute <= 0.44\ngini = 0.134\nsamples = 284\nvalue = [11, 1, 8, 264]\nclass = Cluster 3", fillcolor="#da48e7"] ;
574 -> 584 ;
585 [label="Total damage taken <= 44771.5\ngini = 0.11\nsamples = 279\nvalue = [10, 1, 5, 263]\nclass = Cluster 3", fillcolor="#d945e7"] ;
584 -> 585 ;
586 [label="Wards destroyed <= 5.5\ngini = 0.097\nsamples = 277\nvalue = [10, 1, 3, 263]\nclass = Cluster 3", fillcolor="#d943e6"] ;
585 -> 586 ;
587 [label="Wards placed <= 16.5\ngini = 0.543\nsamples = 19\nvalue = [4, 1, 2, 12]\nclass = Cluster 3", fillcolor="#ea95f1"] ;
586 -> 587 ;
588 [label="Total heal <= 2420.0\ngini = 0.691\nsamples = 9\nvalue = [4, 1, 2, 2]\nclass = Cluster 0", fillcolor="#f8dbc6"] ;
587 -> 588 ;
589 [label="gini = 0.0\nsamples = 4\nvalue = [4, 0, 0, 0]\nclass = Cluster 0", fillcolor="#e58139"] ;
588 -> 589 ;
590 [label="Magic Damage <= 14772.0\ngini = 0.64\nsamples = 5\nvalue = [0, 1, 2, 2]\nclass = Cluster 2", fillcolor="#ffffff"] ;
588 -> 590 ;
591 [label="gini = 0.0\nsamples = 2\nvalue = [0, 0, 0, 2]\nclass = Cluster 3", fillcolor="#d739e5"] ;
590 -> 591 ;
592 [label="Wards placed <= 8.0\ngini = 0.444\nsamples = 3\nvalue = [0, 1, 2, 0]\nclass = Cluster 2", fillcolor="#9ccef2"] ;
590 -> 592 ;
593 [label="gini = 0.0\nsamples = 2\nvalue = [0, 0, 2, 0]\nclass = Cluster 2", fillcolor="#399de5"] ;
592 -> 593 ;
594 [label="gini = 0.0\nsamples = 1\nvalue = [0, 1, 0, 0]\nclass = Cluster 1", fillcolor="#47e539"] ;
592 -> 594 ;
595 [label="gini = 0.0\nsamples = 10\nvalue = [0, 0, 0, 10]\nclass = Cluster 3", fillcolor="#d739e5"] ;
587 -> 595 ;
596 [label="Vision Score <= 45.5\ngini = 0.053\nsamples = 258\nvalue = [6, 0, 1, 251]\nclass = Cluster 3", fillcolor="#d83ee6"] ;
586 -> 596 ;
597 [label="WCPM <= 0.225\ngini = 0.191\nsamples = 56\nvalue = [6, 0, 0, 50]\nclass = Cluster 3", fillcolor="#dc51e8"] ;
596 -> 597 ;
598 [label="Wards placed <= 15.5\ngini = 0.444\nsamples = 6\nvalue = [4, 0, 0, 2]\nclass = Cluster 0", fillcolor="#f2c09c"] ;
597 -> 598 ;
599 [label="gini = 0.0\nsamples = 4\nvalue = [4, 0, 0, 0]\nclass = Cluster 0", fillcolor="#e58139"] ;
598 -> 599 ;
600 [label="gini = 0.0\nsamples = 2\nvalue = [0, 0, 0, 2]\nclass = Cluster 3", fillcolor="#d739e5"] ;
598 -> 600 ;
601 [label="Deaths <= 5.5\ngini = 0.077\nsamples = 50\nvalue = [2, 0, 0, 48]\nclass = Cluster 3", fillcolor="#d941e6"] ;
597 -> 601 ;
602 [label="CSM <= 10.65\ngini = 0.04\nsamples = 49\nvalue = [1, 0, 0, 48]\nclass = Cluster 3", fillcolor="#d83de6"] ;
601 -> 602 ;
603 [label="gini = 0.0\nsamples = 47\nvalue = [0, 0, 0, 47]\nclass = Cluster 3", fillcolor="#d739e5"] ;
602 -> 603 ;
604 [label="Golds <= 12314.0\ngini = 0.5\nsamples = 2\nvalue = [1, 0, 0, 1]\nclass = Cluster 0", fillcolor="#ffffff"] ;
602 -> 604 ;
605 [label="gini = 0.0\nsamples = 1\nvalue = [0, 0, 0, 1]\nclass = Cluster 3", fillcolor="#d739e5"] ;
604 -> 605 ;
606 [label="gini = 0.0\nsamples = 1\nvalue = [1, 0, 0, 0]\nclass = Cluster 0", fillcolor="#e58139"] ;
604 -> 606 ;
607 [label="gini = 0.0\nsamples = 1\nvalue = [1, 0, 0, 0]\nclass = Cluster 0", fillcolor="#e58139"] ;
601 -> 607 ;
608 [label="VWPM <= 0.025\ngini = 0.01\nsamples = 202\nvalue = [0, 0, 1, 201]\nclass = Cluster 3", fillcolor="#d73ae5"] ;
596 -> 608 ;
609 [label="Time ccing others <= 14.5\ngini = 0.5\nsamples = 2\nvalue = [0, 0, 1, 1]\nclass = Cluster 2", fillcolor="#ffffff"] ;
608 -> 609 ;
610 [label="gini = 0.0\nsamples = 1\nvalue = [0, 0, 1, 0]\nclass = Cluster 2", fillcolor="#399de5"] ;
609 -> 610 ;
611 [label="gini = 0.0\nsamples = 1\nvalue = [0, 0, 0, 1]\nclass = Cluster 3", fillcolor="#d739e5"] ;
609 -> 611 ;
612 [label="gini = 0.0\nsamples = 200\nvalue = [0, 0, 0, 200]\nclass = Cluster 3", fillcolor="#d739e5"] ;
608 -> 612 ;
613 [label="gini = 0.0\nsamples = 2\nvalue = [0, 0, 2, 0]\nclass = Cluster 2", fillcolor="#399de5"] ;
585 -> 613 ;
614 [label="Game Duration <= 34.175\ngini = 0.56\nsamples = 5\nvalue = [1, 0, 3, 1]\nclass = Cluster 2", fillcolor="#9ccef2"] ;
584 -> 614 ;
615 [label="LVLD@15 <= 0.5\ngini = 0.5\nsamples = 2\nvalue = [1, 0, 0, 1]\nclass = Cluster 0", fillcolor="#ffffff"] ;
614 -> 615 ;
616 [label="gini = 0.0\nsamples = 1\nvalue = [1, 0, 0, 0]\nclass = Cluster 0", fillcolor="#e58139"] ;
615 -> 616 ;
617 [label="gini = 0.0\nsamples = 1\nvalue = [0, 0, 0, 1]\nclass = Cluster 3", fillcolor="#d739e5"] ;
615 -> 617 ;
618 [label="gini = 0.0\nsamples = 3\nvalue = [0, 0, 3, 0]\nclass = Cluster 2", fillcolor="#399de5"] ;
614 -> 618 ;
619 [label="Golds <= 15535.0\ngini = 0.552\nsamples = 219\nvalue = [12, 9, 70, 128]\nclass = Cluster 3", fillcolor="#efb2f5"] ;
553 -> 619 ;
620 [label="VS% <= 0.145\ngini = 0.446\nsamples = 138\nvalue = [12, 7, 19, 100]\nclass = Cluster 3", fillcolor="#e478ed"] ;
619 -> 620 ;
621 [label="Control Wards Purchased <= 9.5\ngini = 0.7\nsamples = 42\nvalue = [8, 4, 15, 15]\nclass = Cluster 2", fillcolor="#ffffff"] ;
620 -> 621 ;
622 [label="Time ccing others <= 37.5\ngini = 0.672\nsamples = 31\nvalue = [7, 4, 15, 5]\nclass = Cluster 2", fillcolor="#bddef6"] ;
621 -> 622 ;
623 [label="GPM <= 370.5\ngini = 0.739\nsamples = 21\nvalue = [7, 4, 5, 5]\nclass = Cluster 0", fillcolor="#fcefe6"] ;
622 -> 623 ;
624 [label="Wards destroyed <= 9.5\ngini = 0.46\nsamples = 10\nvalue = [7, 0, 1, 2]\nclass = Cluster 0", fillcolor="#efb083"] ;
623 -> 624 ;
625 [label="gini = 0.0\nsamples = 7\nvalue = [7, 0, 0, 0]\nclass = Cluster 0", fillcolor="#e58139"] ;
624 -> 625 ;
626 [label="GD@15 <= -628.0\ngini = 0.444\nsamples = 3\nvalue = [0, 0, 1, 2]\nclass = Cluster 3", fillcolor="#eb9cf2"] ;
624 -> 626 ;
627 [label="gini = 0.0\nsamples = 1\nvalue = [0, 0, 1, 0]\nclass = Cluster 2", fillcolor="#399de5"] ;
626 -> 627 ;
628 [label="gini = 0.0\nsamples = 2\nvalue = [0, 0, 0, 2]\nclass = Cluster 3", fillcolor="#d739e5"] ;
626 -> 628 ;
629 [label="Wards placed <= 14.5\ngini = 0.661\nsamples = 11\nvalue = [0, 4, 4, 3]\nclass = Cluster 1", fillcolor="#ffffff"] ;
623 -> 629 ;
630 [label="gini = 0.0\nsamples = 4\nvalue = [0, 4, 0, 0]\nclass = Cluster 1", fillcolor="#47e539"] ;
629 -> 630 ;
631 [label="KDA <= 2.25\ngini = 0.49\nsamples = 7\nvalue = [0, 0, 4, 3]\nclass = Cluster 2", fillcolor="#cee6f8"] ;
629 -> 631 ;
632 [label="gini = 0.0\nsamples = 3\nvalue = [0, 0, 0, 3]\nclass = Cluster 3", fillcolor="#d739e5"] ;
631 -> 632 ;
633 [label="gini = 0.0\nsamples = 4\nvalue = [0, 0, 4, 0]\nclass = Cluster 2", fillcolor="#399de5"] ;
631 -> 633 ;
634 [label="gini = 0.0\nsamples = 10\nvalue = [0, 0, 10, 0]\nclass = Cluster 2", fillcolor="#399de5"] ;
622 -> 634 ;
635 [label="Damage dealt to turrets <= 203.0\ngini = 0.165\nsamples = 11\nvalue = [1, 0, 0, 10]\nclass = Cluster 3", fillcolor="#db4de8"] ;
621 -> 635 ;
636 [label="gini = 0.0\nsamples = 1\nvalue = [1, 0, 0, 0]\nclass = Cluster 0", fillcolor="#e58139"] ;
635 -> 636 ;
637 [label="gini = 0.0\nsamples = 10\nvalue = [0, 0, 0, 10]\nclass = Cluster 3", fillcolor="#d739e5"] ;
635 -> 637 ;
638 [label="Time ccing others <= 46.5\ngini = 0.212\nsamples = 96\nvalue = [4, 3, 4, 85]\nclass = Cluster 3", fillcolor="#dc51e8"] ;
620 -> 638 ;
639 [label="Kills <= 5.5\ngini = 0.162\nsamples = 93\nvalue = [4, 1, 3, 85]\nclass = Cluster 3", fillcolor="#db4be7"] ;
638 -> 639 ;
640 [label="Total heal <= 11764.5\ngini = 0.127\nsamples = 90\nvalue = [4, 1, 1, 84]\nclass = Cluster 3", fillcolor="#da47e7"] ;
639 -> 640 ;
641 [label="XPD@15 <= 1226.5\ngini = 0.107\nsamples = 89\nvalue = [4, 1, 0, 84]\nclass = Cluster 3", fillcolor="#d945e7"] ;
640 -> 641 ;
642 [label="GPM <= 320.0\ngini = 0.087\nsamples = 88\nvalue = [4, 0, 0, 84]\nclass = Cluster 3", fillcolor="#d942e6"] ;
641 -> 642 ;
643 [label="gini = 0.0\nsamples = 1\nvalue = [1, 0, 0, 0]\nclass = Cluster 0", fillcolor="#e58139"] ;
642 -> 643 ;
644 [label="VS% <= 0.214\ngini = 0.067\nsamples = 87\nvalue = [3, 0, 0, 84]\nclass = Cluster 3", fillcolor="#d840e6"] ;
642 -> 644 ;
645 [label="CSD@15 <= -34.5\ngini = 0.024\nsamples = 82\nvalue = [1, 0, 0, 81]\nclass = Cluster 3", fillcolor="#d73be5"] ;
644 -> 645 ;
646 [label="Deaths <= 6.5\ngini = 0.5\nsamples = 2\nvalue = [1, 0, 0, 1]\nclass = Cluster 0", fillcolor="#ffffff"] ;
645 -> 646 ;
647 [label="gini = 0.0\nsamples = 1\nvalue = [1, 0, 0, 0]\nclass = Cluster 0", fillcolor="#e58139"] ;
646 -> 647 ;
648 [label="gini = 0.0\nsamples = 1\nvalue = [0, 0, 0, 1]\nclass = Cluster 3", fillcolor="#d739e5"] ;
646 -> 648 ;
649 [label="gini = 0.0\nsamples = 80\nvalue = [0, 0, 0, 80]\nclass = Cluster 3", fillcolor="#d739e5"] ;
645 -> 649 ;
650 [label="CS in Team's Jungle <= 11.5\ngini = 0.48\nsamples = 5\nvalue = [2, 0, 0, 3]\nclass = Cluster 3", fillcolor="#f2bdf6"] ;
644 -> 650 ;
651 [label="gini = 0.0\nsamples = 2\nvalue = [2, 0, 0, 0]\nclass = Cluster 0", fillcolor="#e58139"] ;
650 -> 651 ;
652 [label="gini = 0.0\nsamples = 3\nvalue = [0, 0, 0, 3]\nclass = Cluster 3", fillcolor="#d739e5"] ;
650 -> 652 ;
653 [label="gini = 0.0\nsamples = 1\nvalue = [0, 1, 0, 0]\nclass = Cluster 1", fillcolor="#47e539"] ;
641 -> 653 ;
654 [label="gini = 0.0\nsamples = 1\nvalue = [0, 0, 1, 0]\nclass = Cluster 2", fillcolor="#399de5"] ;
640 -> 654 ;
655 [label="CS <= 289.5\ngini = 0.444\nsamples = 3\nvalue = [0, 0, 2, 1]\nclass = Cluster 2", fillcolor="#9ccef2"] ;
639 -> 655 ;
656 [label="gini = 0.0\nsamples = 2\nvalue = [0, 0, 2, 0]\nclass = Cluster 2", fillcolor="#399de5"] ;
655 -> 656 ;
657 [label="gini = 0.0\nsamples = 1\nvalue = [0, 0, 0, 1]\nclass = Cluster 3", fillcolor="#d739e5"] ;
655 -> 657 ;
658 [label="Golds <= 14298.0\ngini = 0.444\nsamples = 3\nvalue = [0, 2, 1, 0]\nclass = Cluster 1", fillcolor="#a3f29c"] ;
638 -> 658 ;
659 [label="gini = 0.0\nsamples = 2\nvalue = [0, 2, 0, 0]\nclass = Cluster 1", fillcolor="#47e539"] ;
658 -> 659 ;
660 [label="gini = 0.0\nsamples = 1\nvalue = [0, 0, 1, 0]\nclass = Cluster 2", fillcolor="#399de5"] ;
658 -> 660 ;
661 [label="Assists <= 3.5\ngini = 0.483\nsamples = 81\nvalue = [0, 2, 51, 28]\nclass = Cluster 2", fillcolor="#a9d4f4"] ;
619 -> 661 ;
662 [label="Total heal <= 7789.5\ngini = 0.332\nsamples = 19\nvalue = [0, 0, 4, 15]\nclass = Cluster 3", fillcolor="#e26eec"] ;
661 -> 662 ;
663 [label="gini = 0.0\nsamples = 14\nvalue = [0, 0, 0, 14]\nclass = Cluster 3", fillcolor="#d739e5"] ;
662 -> 663 ;
664 [label="DPM <= 498.0\ngini = 0.32\nsamples = 5\nvalue = [0, 0, 4, 1]\nclass = Cluster 2", fillcolor="#6ab6ec"] ;
662 -> 664 ;
665 [label="gini = 0.0\nsamples = 4\nvalue = [0, 0, 4, 0]\nclass = Cluster 2", fillcolor="#399de5"] ;
664 -> 665 ;
666 [label="gini = 0.0\nsamples = 1\nvalue = [0, 0, 0, 1]\nclass = Cluster 3", fillcolor="#d739e5"] ;
664 -> 666 ;
667 [label="Kills <= 1.5\ngini = 0.38\nsamples = 62\nvalue = [0, 2, 47, 13]\nclass = Cluster 2", fillcolor="#76bbed"] ;
661 -> 667 ;
668 [label="KDA <= 2.25\ngini = 0.444\nsamples = 12\nvalue = [0, 0, 4, 8]\nclass = Cluster 3", fillcolor="#eb9cf2"] ;
667 -> 668 ;
669 [label="gini = 0.0\nsamples = 3\nvalue = [0, 0, 3, 0]\nclass = Cluster 2", fillcolor="#399de5"] ;
668 -> 669 ;
670 [label="Game Duration <= 39.533\ngini = 0.198\nsamples = 9\nvalue = [0, 0, 1, 8]\nclass = Cluster 3", fillcolor="#dc52e8"] ;
668 -> 670 ;
671 [label="gini = 0.0\nsamples = 1\nvalue = [0, 0, 1, 0]\nclass = Cluster 2", fillcolor="#399de5"] ;
670 -> 671 ;
672 [label="gini = 0.0\nsamples = 8\nvalue = [0, 0, 0, 8]\nclass = Cluster 3", fillcolor="#d739e5"] ;
670 -> 672 ;
673 [label="Total damage taken <= 11155.0\ngini = 0.249\nsamples = 50\nvalue = [0, 2, 43, 5]\nclass = Cluster 2", fillcolor="#58ace9"] ;
667 -> 673 ;
674 [label="VWPM <= 0.19\ngini = 0.653\nsamples = 7\nvalue = [0, 2, 2, 3]\nclass = Cluster 3", fillcolor="#f7d7fa"] ;
673 -> 674 ;
675 [label="Magic Damage <= 20087.5\ngini = 0.5\nsamples = 4\nvalue = [0, 2, 2, 0]\nclass = Cluster 1", fillcolor="#ffffff"] ;
674 -> 675 ;
676 [label="gini = 0.0\nsamples = 2\nvalue = [0, 0, 2, 0]\nclass = Cluster 2", fillcolor="#399de5"] ;
675 -> 676 ;
677 [label="gini = 0.0\nsamples = 2\nvalue = [0, 2, 0, 0]\nclass = Cluster 1", fillcolor="#47e539"] ;
675 -> 677 ;
678 [label="gini = 0.0\nsamples = 3\nvalue = [0, 0, 0, 3]\nclass = Cluster 3", fillcolor="#d739e5"] ;
674 -> 678 ;
679 [label="True Damage <= 37.5\ngini = 0.089\nsamples = 43\nvalue = [0, 0, 41, 2]\nclass = Cluster 2", fillcolor="#43a2e6"] ;
673 -> 679 ;
680 [label="Total damage taken <= 20577.5\ngini = 0.5\nsamples = 4\nvalue = [0, 0, 2, 2]\nclass = Cluster 2", fillcolor="#ffffff"] ;
679 -> 680 ;
681 [label="gini = 0.0\nsamples = 2\nvalue = [0, 0, 0, 2]\nclass = Cluster 3", fillcolor="#d739e5"] ;
680 -> 681 ;
682 [label="gini = 0.0\nsamples = 2\nvalue = [0, 0, 2, 0]\nclass = Cluster 2", fillcolor="#399de5"] ;
680 -> 682 ;
683 [label="gini = 0.0\nsamples = 39\nvalue = [0, 0, 39, 0]\nclass = Cluster 2", fillcolor="#399de5"] ;
679 -> 683 ;
684 [label="WCPM <= 0.035\ngini = 0.034\nsamples = 465\nvalue = [6, 0, 2, 457]\nclass = Cluster 3", fillcolor="#d83ce5"] ;
552 -> 684 ;
685 [label="gini = 0.0\nsamples = 2\nvalue = [2, 0, 0, 0]\nclass = Cluster 0", fillcolor="#e58139"] ;
684 -> 685 ;
686 [label="Damage dealt to turrets <= 8721.0\ngini = 0.026\nsamples = 463\nvalue = [4, 0, 2, 457]\nclass = Cluster 3", fillcolor="#d83ce5"] ;
684 -> 686 ;
687 [label="DMG% <= 0.114\ngini = 0.021\nsamples = 462\nvalue = [4, 0, 1, 457]\nclass = Cluster 3", fillcolor="#d73be5"] ;
686 -> 687 ;
688 [label="Magic Damage <= 8488.5\ngini = 0.5\nsamples = 4\nvalue = [2, 0, 0, 2]\nclass = Cluster 0", fillcolor="#ffffff"] ;
687 -> 688 ;
689 [label="gini = 0.0\nsamples = 2\nvalue = [0, 0, 0, 2]\nclass = Cluster 3", fillcolor="#d739e5"] ;
688 -> 689 ;
690 [label="gini = 0.0\nsamples = 2\nvalue = [2, 0, 0, 0]\nclass = Cluster 0", fillcolor="#e58139"] ;
688 -> 690 ;
691 [label="XPD@15 <= -1538.0\ngini = 0.013\nsamples = 458\nvalue = [2, 0, 1, 455]\nclass = Cluster 3", fillcolor="#d73ae5"] ;
687 -> 691 ;
692 [label="Assists <= 7.0\ngini = 0.5\nsamples = 2\nvalue = [1, 0, 0, 1]\nclass = Cluster 0", fillcolor="#ffffff"] ;
691 -> 692 ;
693 [label="gini = 0.0\nsamples = 1\nvalue = [0, 0, 0, 1]\nclass = Cluster 3", fillcolor="#d739e5"] ;
692 -> 693 ;
694 [label="gini = 0.0\nsamples = 1\nvalue = [1, 0, 0, 0]\nclass = Cluster 0", fillcolor="#e58139"] ;
692 -> 694 ;
695 [label="Damage dealt to turrets <= 6405.5\ngini = 0.009\nsamples = 456\nvalue = [1, 0, 1, 454]\nclass = Cluster 3", fillcolor="#d73ae5"] ;
691 -> 695 ;
696 [label="WCPM <= 0.095\ngini = 0.004\nsamples = 449\nvalue = [1, 0, 0, 448]\nclass = Cluster 3", fillcolor="#d739e5"] ;
695 -> 696 ;
697 [label="Golds <= 12361.0\ngini = 0.245\nsamples = 7\nvalue = [1, 0, 0, 6]\nclass = Cluster 3", fillcolor="#de5ae9"] ;
696 -> 697 ;
698 [label="gini = 0.0\nsamples = 1\nvalue = [1, 0, 0, 0]\nclass = Cluster 0", fillcolor="#e58139"] ;
697 -> 698 ;
699 [label="gini = 0.0\nsamples = 6\nvalue = [0, 0, 0, 6]\nclass = Cluster 3", fillcolor="#d739e5"] ;
697 -> 699 ;
700 [label="gini = 0.0\nsamples = 442\nvalue = [0, 0, 0, 442]\nclass = Cluster 3", fillcolor="#d739e5"] ;
696 -> 700 ;
701 [label="CSD@15 <= 14.5\ngini = 0.245\nsamples = 7\nvalue = [0, 0, 1, 6]\nclass = Cluster 3", fillcolor="#de5ae9"] ;
695 -> 701 ;
702 [label="gini = 0.0\nsamples = 6\nvalue = [0, 0, 0, 6]\nclass = Cluster 3", fillcolor="#d739e5"] ;
701 -> 702 ;
703 [label="gini = 0.0\nsamples = 1\nvalue = [0, 0, 1, 0]\nclass = Cluster 2", fillcolor="#399de5"] ;
701 -> 703 ;
704 [label="gini = 0.0\nsamples = 1\nvalue = [0, 0, 1, 0]\nclass = Cluster 2", fillcolor="#399de5"] ;
686 -> 704 ;
705 [label="VS% <= 0.193\ngini = 0.392\nsamples = 322\nvalue = [7, 4, 241, 70]\nclass = Cluster 2", fillcolor="#79bced"] ;
421 -> 705 ;
706 [label="Golds <= 14260.0\ngini = 0.305\nsamples = 285\nvalue = [7, 4, 234, 40]\nclass = Cluster 2", fillcolor="#62b1ea"] ;
705 -> 706 ;
707 [label="VSPM <= 1.19\ngini = 0.619\nsamples = 65\nvalue = [5, 4, 29, 27]\nclass = Cluster 2", fillcolor="#f5fafe"] ;
706 -> 707 ;
708 [label="Kills <= 0.5\ngini = 0.349\nsamples = 28\nvalue = [1, 0, 22, 5]\nclass = Cluster 2", fillcolor="#6db7ec"] ;
707 -> 708 ;
709 [label="gini = 0.0\nsamples = 4\nvalue = [0, 0, 0, 4]\nclass = Cluster 3", fillcolor="#d739e5"] ;
708 -> 709 ;
710 [label="Total damage to Champion <= 25180.5\ngini = 0.156\nsamples = 24\nvalue = [1, 0, 22, 1]\nclass = Cluster 2", fillcolor="#4aa6e7"] ;
708 -> 710 ;
711 [label="Wards placed <= 25.5\ngini = 0.5\nsamples = 2\nvalue = [1, 0, 0, 1]\nclass = Cluster 0", fillcolor="#ffffff"] ;
710 -> 711 ;
712 [label="gini = 0.0\nsamples = 1\nvalue = [1, 0, 0, 0]\nclass = Cluster 0", fillcolor="#e58139"] ;
711 -> 712 ;
713 [label="gini = 0.0\nsamples = 1\nvalue = [0, 0, 0, 1]\nclass = Cluster 3", fillcolor="#d739e5"] ;
711 -> 713 ;
714 [label="gini = 0.0\nsamples = 22\nvalue = [0, 0, 22, 0]\nclass = Cluster 2", fillcolor="#399de5"] ;
710 -> 714 ;
715 [label="Total heal <= 5455.5\ngini = 0.587\nsamples = 37\nvalue = [4, 4, 7, 22]\nclass = Cluster 3", fillcolor="#eb9cf2"] ;
707 -> 715 ;
716 [label="Total damage to Champion <= 25029.5\ngini = 0.518\nsamples = 33\nvalue = [4, 4, 3, 22]\nclass = Cluster 3", fillcolor="#e684ef"] ;
715 -> 716 ;
717 [label="gini = 0.0\nsamples = 3\nvalue = [3, 0, 0, 0]\nclass = Cluster 0", fillcolor="#e58139"] ;
716 -> 717 ;
718 [label="GPM <= 397.0\ngini = 0.433\nsamples = 30\nvalue = [1, 4, 3, 22]\nclass = Cluster 3", fillcolor="#e376ed"] ;
716 -> 718 ;
719 [label="Damage dealt to turrets <= 117.5\ngini = 0.321\nsamples = 27\nvalue = [1, 1, 3, 22]\nclass = Cluster 3", fillcolor="#df62ea"] ;
718 -> 719 ;
720 [label="Wards destroyed <= 8.5\ngini = 0.5\nsamples = 2\nvalue = [1, 0, 1, 0]\nclass = Cluster 0", fillcolor="#ffffff"] ;
719 -> 720 ;
721 [label="gini = 0.0\nsamples = 1\nvalue = [1, 0, 0, 0]\nclass = Cluster 0", fillcolor="#e58139"] ;
720 -> 721 ;
722 [label="gini = 0.0\nsamples = 1\nvalue = [0, 0, 1, 0]\nclass = Cluster 2", fillcolor="#399de5"] ;
720 -> 722 ;
723 [label="Kills <= 4.5\ngini = 0.218\nsamples = 25\nvalue = [0, 1, 2, 22]\nclass = Cluster 3", fillcolor="#dc53e8"] ;
719 -> 723 ;
724 [label="Wards placed <= 11.5\ngini = 0.083\nsamples = 23\nvalue = [0, 0, 1, 22]\nclass = Cluster 3", fillcolor="#d942e6"] ;
723 -> 724 ;
725 [label="gini = 0.0\nsamples = 1\nvalue = [0, 0, 1, 0]\nclass = Cluster 2", fillcolor="#399de5"] ;
724 -> 725 ;
726 [label="gini = 0.0\nsamples = 22\nvalue = [0, 0, 0, 22]\nclass = Cluster 3", fillcolor="#d739e5"] ;
724 -> 726 ;
727 [label="CS in Team's Jungle <= 10.0\ngini = 0.5\nsamples = 2\nvalue = [0, 1, 1, 0]\nclass = Cluster 1", fillcolor="#ffffff"] ;
723 -> 727 ;
728 [label="gini = 0.0\nsamples = 1\nvalue = [0, 1, 0, 0]\nclass = Cluster 1", fillcolor="#47e539"] ;
727 -> 728 ;
729 [label="gini = 0.0\nsamples = 1\nvalue = [0, 0, 1, 0]\nclass = Cluster 2", fillcolor="#399de5"] ;
727 -> 729 ;
730 [label="gini = 0.0\nsamples = 3\nvalue = [0, 3, 0, 0]\nclass = Cluster 1", fillcolor="#47e539"] ;
718 -> 730 ;
731 [label="gini = 0.0\nsamples = 4\nvalue = [0, 0, 4, 0]\nclass = Cluster 2", fillcolor="#399de5"] ;
715 -> 731 ;
732 [label="KDA <= 1.85\ngini = 0.128\nsamples = 220\nvalue = [2, 0, 205, 13]\nclass = Cluster 2", fillcolor="#47a4e7"] ;
706 -> 732 ;
733 [label="Magic Damage <= 24877.0\ngini = 0.424\nsamples = 43\nvalue = [2, 0, 31, 10]\nclass = Cluster 2", fillcolor="#81c1ee"] ;
732 -> 733 ;
734 [label="Total damage taken <= 24591.0\ngini = 0.586\nsamples = 18\nvalue = [2, 0, 7, 9]\nclass = Cluster 3", fillcolor="#f8dbfa"] ;
733 -> 734 ;
735 [label="gini = 0.0\nsamples = 9\nvalue = [0, 0, 0, 9]\nclass = Cluster 3", fillcolor="#d739e5"] ;
734 -> 735 ;
736 [label="VS% <= 0.172\ngini = 0.346\nsamples = 9\nvalue = [2, 0, 7, 0]\nclass = Cluster 2", fillcolor="#72b9ec"] ;
734 -> 736 ;
737 [label="gini = 0.0\nsamples = 7\nvalue = [0, 0, 7, 0]\nclass = Cluster 2", fillcolor="#399de5"] ;
736 -> 737 ;
738 [label="gini = 0.0\nsamples = 2\nvalue = [2, 0, 0, 0]\nclass = Cluster 0", fillcolor="#e58139"] ;
736 -> 738 ;
739 [label="CS in Team's Jungle <= 8.5\ngini = 0.077\nsamples = 25\nvalue = [0, 0, 24, 1]\nclass = Cluster 2", fillcolor="#41a1e6"] ;
733 -> 739 ;
740 [label="gini = 0.0\nsamples = 1\nvalue = [0, 0, 0, 1]\nclass = Cluster 3", fillcolor="#d739e5"] ;
739 -> 740 ;
741 [label="gini = 0.0\nsamples = 24\nvalue = [0, 0, 24, 0]\nclass = Cluster 2", fillcolor="#399de5"] ;
739 -> 741 ;
742 [label="WPM <= 0.87\ngini = 0.033\nsamples = 177\nvalue = [0, 0, 174, 3]\nclass = Cluster 2", fillcolor="#3c9fe5"] ;
732 -> 742 ;
743 [label="Total damage taken <= 9480.5\ngini = 0.022\nsamples = 176\nvalue = [0, 0, 174, 2]\nclass = Cluster 2", fillcolor="#3b9ee5"] ;
742 -> 743 ;
744 [label="Kills <= 1.5\ngini = 0.444\nsamples = 3\nvalue = [0, 0, 2, 1]\nclass = Cluster 2", fillcolor="#9ccef2"] ;
743 -> 744 ;
745 [label="gini = 0.0\nsamples = 2\nvalue = [0, 0, 2, 0]\nclass = Cluster 2", fillcolor="#399de5"] ;
744 -> 745 ;
746 [label="gini = 0.0\nsamples = 1\nvalue = [0, 0, 0, 1]\nclass = Cluster 3", fillcolor="#d739e5"] ;
744 -> 746 ;
747 [label="VWPM <= 0.375\ngini = 0.011\nsamples = 173\nvalue = [0, 0, 172, 1]\nclass = Cluster 2", fillcolor="#3a9ee5"] ;
743 -> 747 ;
748 [label="gini = 0.0\nsamples = 169\nvalue = [0, 0, 169, 0]\nclass = Cluster 2", fillcolor="#399de5"] ;
747 -> 748 ;
749 [label="KP% <= 0.658\ngini = 0.375\nsamples = 4\nvalue = [0, 0, 3, 1]\nclass = Cluster 2", fillcolor="#7bbeee"] ;
747 -> 749 ;
750 [label="gini = 0.0\nsamples = 1\nvalue = [0, 0, 0, 1]\nclass = Cluster 3", fillcolor="#d739e5"] ;
749 -> 750 ;
751 [label="gini = 0.0\nsamples = 3\nvalue = [0, 0, 3, 0]\nclass = Cluster 2", fillcolor="#399de5"] ;
749 -> 751 ;
752 [label="gini = 0.0\nsamples = 1\nvalue = [0, 0, 0, 1]\nclass = Cluster 3", fillcolor="#d739e5"] ;
742 -> 752 ;
753 [label="Total damage to Champion <= 33711.5\ngini = 0.307\nsamples = 37\nvalue = [0, 0, 7, 30]\nclass = Cluster 3", fillcolor="#e067eb"] ;
705 -> 753 ;
754 [label="WPM <= 0.145\ngini = 0.121\nsamples = 31\nvalue = [0, 0, 2, 29]\nclass = Cluster 3", fillcolor="#da47e7"] ;
753 -> 754 ;
755 [label="gini = 0.0\nsamples = 1\nvalue = [0, 0, 1, 0]\nclass = Cluster 2", fillcolor="#399de5"] ;
754 -> 755 ;
756 [label="Assists <= 12.0\ngini = 0.064\nsamples = 30\nvalue = [0, 0, 1, 29]\nclass = Cluster 3", fillcolor="#d840e6"] ;
754 -> 756 ;
757 [label="gini = 0.0\nsamples = 28\nvalue = [0, 0, 0, 28]\nclass = Cluster 3", fillcolor="#d739e5"] ;
756 -> 757 ;
758 [label="Damage dealt to turrets <= 2519.5\ngini = 0.5\nsamples = 2\nvalue = [0, 0, 1, 1]\nclass = Cluster 2", fillcolor="#ffffff"] ;
756 -> 758 ;
759 [label="gini = 0.0\nsamples = 1\nvalue = [0, 0, 1, 0]\nclass = Cluster 2", fillcolor="#399de5"] ;
758 -> 759 ;
760 [label="gini = 0.0\nsamples = 1\nvalue = [0, 0, 0, 1]\nclass = Cluster 3", fillcolor="#d739e5"] ;
758 -> 760 ;
761 [label="KP% <= 0.56\ngini = 0.278\nsamples = 6\nvalue = [0, 0, 5, 1]\nclass = Cluster 2", fillcolor="#61b1ea"] ;
753 -> 761 ;
762 [label="gini = 0.0\nsamples = 1\nvalue = [0, 0, 0, 1]\nclass = Cluster 3", fillcolor="#d739e5"] ;
761 -> 762 ;
763 [label="gini = 0.0\nsamples = 5\nvalue = [0, 0, 5, 0]\nclass = Cluster 2", fillcolor="#399de5"] ;
761 -> 763 ;
764 [label="Game Duration <= 34.975\ngini = 0.65\nsamples = 4636\nvalue = [390, 2357, 1074, 815]\nclass = Cluster 1", fillcolor="#bdf6b8"] ;
0 -> 764 [labeldistance=2.5, labelangle=-45, headlabel="False"] ;
765 [label="Vision Score <= 40.5\ngini = 0.506\nsamples = 3180\nvalue = [344, 2133, 151, 552]\nclass = Cluster 1", fillcolor="#90ef88"] ;
764 -> 765 ;
766 [label="XPD@15 <= -395.5\ngini = 0.372\nsamples = 2424\nvalue = [335, 1885, 55, 149]\nclass = Cluster 1", fillcolor="#76ec6c"] ;
765 -> 766 ;
767 [label="GPM <= 441.5\ngini = 0.61\nsamples = 340\nvalue = [160, 136, 16, 28]\nclass = Cluster 0", fillcolor="#fcf0e8"] ;
766 -> 767 ;
768 [label="Wards destroyed <= 7.5\ngini = 0.476\nsamples = 201\nvalue = [139, 38, 5, 19]\nclass = Cluster 0", fillcolor="#efb184"] ;
767 -> 768 ;
769 [label="Solo kills <= 15.0\ngini = 0.315\nsamples = 146\nvalue = [118, 26, 2, 0]\nclass = Cluster 0", fillcolor="#eb9e67"] ;
768 -> 769 ;
770 [label="Magic Damage <= 15212.5\ngini = 0.269\nsamples = 140\nvalue = [118, 20, 2, 0]\nclass = Cluster 0", fillcolor="#ea985d"] ;
769 -> 770 ;
771 [label="KDA <= 16.5\ngini = 0.096\nsamples = 99\nvalue = [94, 5, 0, 0]\nclass = Cluster 0", fillcolor="#e68844"] ;
770 -> 771 ;
772 [label="GPM <= 438.5\ngini = 0.06\nsamples = 97\nvalue = [94, 3, 0, 0]\nclass = Cluster 0", fillcolor="#e6853f"] ;
771 -> 772 ;
773 [label="KP% <= 0.878\ngini = 0.022\nsamples = 89\nvalue = [88, 1, 0, 0]\nclass = Cluster 0", fillcolor="#e5823b"] ;
772 -> 773 ;
774 [label="gini = 0.0\nsamples = 80\nvalue = [80, 0, 0, 0]\nclass = Cluster 0", fillcolor="#e58139"] ;
773 -> 774 ;
775 [label="VSPM <= 1.005\ngini = 0.198\nsamples = 9\nvalue = [8, 1, 0, 0]\nclass = Cluster 0", fillcolor="#e89152"] ;
773 -> 775 ;
776 [label="gini = 0.0\nsamples = 8\nvalue = [8, 0, 0, 0]\nclass = Cluster 0", fillcolor="#e58139"] ;
775 -> 776 ;
777 [label="gini = 0.0\nsamples = 1\nvalue = [0, 1, 0, 0]\nclass = Cluster 1", fillcolor="#47e539"] ;
775 -> 777 ;
778 [label="Golds <= 12387.0\ngini = 0.375\nsamples = 8\nvalue = [6, 2, 0, 0]\nclass = Cluster 0", fillcolor="#eeab7b"] ;
772 -> 778 ;
779 [label="gini = 0.0\nsamples = 2\nvalue = [0, 2, 0, 0]\nclass = Cluster 1", fillcolor="#47e539"] ;
778 -> 779 ;
780 [label="gini = 0.0\nsamples = 6\nvalue = [6, 0, 0, 0]\nclass = Cluster 0", fillcolor="#e58139"] ;
778 -> 780 ;
781 [label="gini = 0.0\nsamples = 2\nvalue = [0, 2, 0, 0]\nclass = Cluster 1", fillcolor="#47e539"] ;
771 -> 781 ;
782 [label="Damage dealt to turrets <= 3654.5\ngini = 0.521\nsamples = 41\nvalue = [24, 15, 2, 0]\nclass = Cluster 0", fillcolor="#f6d3ba"] ;
770 -> 782 ;
783 [label="Total heal <= 6886.5\ngini = 0.295\nsamples = 29\nvalue = [24, 4, 1, 0]\nclass = Cluster 0", fillcolor="#ea9a61"] ;
782 -> 783 ;
784 [label="Game Duration <= 25.692\ngini = 0.077\nsamples = 25\nvalue = [24, 1, 0, 0]\nclass = Cluster 0", fillcolor="#e68641"] ;
783 -> 784 ;
785 [label="gini = 0.0\nsamples = 1\nvalue = [0, 1, 0, 0]\nclass = Cluster 1", fillcolor="#47e539"] ;
784 -> 785 ;
